%YAML:1.0
---
opencv_ml_svm:
   format: 3
   svmType: C_SVC
   kernel:
      type: LINEAR
   C: 1.
   term_criteria: { epsilon:1.1920928955078125e-07, iterations:1000 }
   var_count: 128
   class_count: 5
   class_labels: !!opencv-matrix
      rows: 5
      cols: 1
      dt: i
      data: [ 0, 1, 2, 3, 4 ]
   sv_total: 10
   support_vectors:
      - [ 6.45643013e-05, -8.34906896e-05, -6.74784460e-05,
          2.13407639e-05, -9.66457264e-06, -1.75649620e-05,
          -3.31408046e-05, 1.60138406e-05, 5.34663704e-05,
          4.95354470e-05, -1.41284763e-05, 3.32596428e-05,
          1.03138764e-05, 5.27552620e-05, 6.57406854e-05,
          -5.20443900e-05, -1.89878319e-05, 3.87948012e-06,
          2.05458218e-05, 4.32992383e-05, 5.34919091e-05, 1.98679445e-05,
          1.28042257e-06, -4.30900764e-05, -3.60205995e-05,
          -3.50116125e-06, 5.83294204e-05, -1.91923427e-05,
          3.09645038e-05, 4.24286736e-05, -2.93271623e-05,
          1.64012072e-05, -3.38268947e-05, 1.43306734e-05,
          -2.63454240e-05, 6.87192660e-05, -1.73989956e-05,
          1.89133370e-05, -3.81688042e-05, -3.35022451e-05,
          2.63093580e-06, 3.63243234e-05, -2.17655398e-07,
          7.53805944e-05, 8.81798260e-05, 2.79738811e-06,
          -6.10154639e-05, -2.75277962e-05, -3.16431688e-05,
          -3.60469458e-05, 1.63168133e-05, 1.65436745e-06,
          -2.66118332e-05, -2.79578053e-05, 9.98778487e-05,
          5.73379002e-05, -6.80380035e-05, -1.30374799e-04,
          -5.70987031e-05, -8.43041926e-05, -3.60264639e-05,
          -2.37289714e-05, -7.13926347e-05, -1.48497984e-05,
          -1.29234822e-05, -6.08323244e-05, -3.89238958e-05,
          2.27247638e-05, 1.80249663e-05, 5.70430420e-05, 4.29699430e-05,
          -2.67689738e-05, -6.64890331e-06, -2.38059874e-05,
          -1.43661755e-05, -2.56583462e-05, -2.21074006e-05,
          -2.15660548e-05, 4.88300866e-05, 1.56179049e-05,
          2.02835668e-06, 5.09816746e-05, -7.60167950e-06,
          -2.08676065e-05, -4.18964119e-05, 5.25525465e-05,
          2.19459503e-06, 6.07875663e-05, 4.51099841e-05, 2.23869301e-05,
          -5.89146730e-05, -6.79764562e-05, -7.27148945e-05,
          1.73699282e-05, -5.69390504e-05, -8.85079498e-06,
          2.58405726e-05, -3.91025278e-05, -5.03107913e-05,
          -2.38153916e-05, 1.39053418e-05, -4.43672507e-05,
          -3.35582117e-05, 2.98815394e-05, 6.85870327e-05,
          -3.50880400e-05, -1.30631801e-04, -1.44780453e-04,
          -8.82025997e-05, -3.95235329e-05, 1.60337440e-05,
          3.40507504e-05, 3.93496339e-05, -5.88704388e-05,
          -9.94450893e-05, -1.16646683e-04, -6.78204087e-05,
          -1.90944829e-05, 4.04979291e-05, 1.60728196e-05,
          1.24793398e-04, 2.95944537e-05, 2.64004011e-05,
          -1.14933737e-05, 1.91014606e-05, -3.05865506e-05,
          -3.61145976e-05, 6.76779382e-05 ]
      - [ 3.97660624e-05, -4.32669003e-05, -5.21828624e-05,
          -3.78500154e-05, -7.16831273e-05, -4.18282143e-05,
          9.21939863e-05, 4.63246470e-05, 2.55370542e-05, 3.90547393e-05,
          2.29914585e-05, 1.13267142e-05, -3.04283931e-05,
          -1.76925041e-05, 7.93268409e-05, 9.57051452e-06,
          -8.16140073e-06, -5.60269145e-05, 1.48804365e-05,
          5.38008171e-05, 3.68887886e-05, 2.12369778e-05, 7.09334490e-05,
          -3.58003381e-05, 7.76155357e-05, 1.14548013e-04,
          2.51800157e-05, -1.00456047e-04, -1.80649240e-05,
          7.07140352e-05, -4.88042606e-05, -7.22504992e-05,
          6.96841880e-06, -1.17621266e-05, 4.92031068e-05,
          3.78852383e-05, -2.37733275e-05, 2.32903876e-05,
          2.68598596e-05, -7.46574051e-06, 3.51242670e-05,
          -3.06068141e-05, -4.07840853e-05, 6.92137473e-05,
          2.90208100e-05, -6.81667007e-05, 4.03109007e-05,
          8.15065869e-05, -9.12535779e-06, -1.10674437e-05,
          2.86079667e-05, -2.98427422e-05, -2.52850859e-05,
          2.78308198e-05, 1.01059813e-05, 2.47064199e-05,
          -5.29072395e-06, 2.47362846e-06, -9.55289870e-05,
          -6.74429029e-05, -7.00395685e-05, 4.14871574e-05,
          -1.85936242e-05, 9.84460130e-05, -1.04516963e-04,
          -9.64182618e-05, 1.82188523e-05, 3.83616607e-05,
          -5.03585761e-06, 2.80331133e-05, 2.52056943e-05,
          1.40130815e-05, -4.34732392e-05, -3.08060589e-05,
          2.60677461e-05, 5.23737144e-05, 5.14871244e-05, 1.06299913e-05,
          5.40146830e-05, 3.23637541e-05, 7.95605447e-05, 5.57667991e-05,
          2.50024623e-05, 3.16928272e-05, 4.13744019e-05, 9.87739113e-05,
          2.05327033e-05, 5.93945479e-05, 5.24170791e-05, 6.96877687e-05,
          7.02995339e-06, -7.99957070e-06, -2.15566797e-05,
          9.36583165e-05, -4.07096559e-05, 1.06848238e-04,
          -7.68923746e-06, -5.74252190e-05, -3.51689996e-05,
          -2.65947019e-05, -4.01335346e-05, 1.03461980e-05,
          1.87100050e-05, 8.60746150e-05, -1.18322569e-05,
          -6.12970689e-05, -1.05357693e-04, -8.64589456e-05,
          -4.30511354e-05, -5.79569387e-05, -5.47402378e-05,
          3.93441842e-05, 2.92229743e-05, -2.75709608e-05,
          -1.23448917e-04, -8.45983886e-05, -5.83244982e-05,
          -6.43107705e-05, -1.22662523e-05, -6.46379558e-05,
          8.41973888e-05, -2.56276089e-05, -4.30654245e-06,
          -9.77018863e-05, -3.98939046e-05, -5.68665128e-05,
          -3.91030298e-05, -2.06397453e-05 ]
      - [ 2.07538815e-05, -1.42230544e-06, -2.33816918e-05,
          1.85814006e-05, 7.21171818e-05, 7.59181639e-05,
          -6.63575047e-05, 3.86095453e-05, 7.12017209e-06,
          -5.57352978e-05, -7.26505241e-05, 2.28624958e-05,
          1.92066855e-05, -4.65104386e-05, 8.10405763e-05,
          -2.65359031e-05, 8.07118122e-05, 8.40251960e-05,
          -3.90976456e-05, 1.12011558e-05, -7.94763764e-05,
          1.16176298e-05, -3.94997951e-05, 3.36733247e-05,
          -2.63499933e-05, 1.28814254e-05, 9.77847667e-05,
          -9.13599943e-05, -4.16684743e-05, -4.66639212e-05,
          8.79765503e-06, 2.45068350e-05, -2.13812800e-05,
          -2.90503649e-05, -3.11804470e-05, 3.45316403e-05,
          -1.56600527e-05, -1.03466491e-05, -4.42105993e-05,
          -5.90994059e-05, 1.03883511e-04, 6.86887188e-06,
          -3.83657753e-05, -4.98851477e-05, 1.66694354e-05,
          -3.28742972e-05, -3.44183463e-05, -4.02431542e-05,
          -5.00996030e-05, -6.95008657e-06, 7.46231526e-05,
          1.14451723e-04, 2.41718790e-05, 7.82354691e-05,
          -1.68171719e-05, 1.00996594e-05, -8.44709430e-05,
          -1.12728841e-04, -2.54629849e-05, 1.13991569e-04,
          9.23607149e-05, -4.91059873e-05, 1.24653241e-06,
          -2.88431529e-05, 2.47758617e-05, -7.98617039e-05,
          3.15753859e-05, 4.56074631e-05, 3.16562073e-05, 1.09816945e-04,
          -4.69268125e-05, 5.13637424e-05, 1.63768673e-05,
          -1.83948250e-05, -7.98784749e-05, -9.55045834e-05,
          -1.08715823e-04, -7.08048901e-05, -2.19687045e-05,
          3.35096192e-05, 1.01970418e-05, -1.74799461e-05,
          -5.44801733e-05, -8.45186005e-05, -1.08103741e-04,
          -2.91948854e-05, -5.32446647e-05, 6.10760253e-06,
          -6.16199468e-05, -2.51921592e-05, -1.00112538e-05,
          -3.64496300e-05, -2.18894002e-05, 5.83718202e-06,
          -7.66959784e-05, -5.90410855e-05, -1.98144498e-05,
          -9.05424386e-05, -2.61328223e-05, 3.64285806e-05,
          4.70837658e-05, 3.14918034e-05, -7.11535176e-05,
          -1.79261406e-06, 9.80012101e-06, -3.43764550e-05,
          -2.22398535e-06, 8.49832650e-05, 9.36934521e-05,
          5.19588320e-05, 1.57478485e-06, 5.81968052e-05,
          -5.67764573e-06, 1.05972531e-05, 4.53824869e-05,
          4.96664215e-05, 3.77654906e-05, -3.08609538e-06,
          7.99716145e-05, 9.06867208e-05, 7.21984034e-05, 9.64040446e-05,
          4.68929247e-05, 6.91988171e-05, 5.82102730e-05,
          -2.90719763e-05, 2.67435516e-05, 6.19593120e-05 ]
      - [ -8.07887118e-05, 4.87172729e-05, -8.39943677e-05,
          1.83366756e-05, -5.44482100e-05, 5.51367993e-05,
          -1.00005396e-04, 1.18586715e-04, 1.02795486e-04,
          2.16004555e-05, -4.21163495e-05, -4.02468977e-05,
          1.35025592e-04, 3.64620610e-05, 2.32218681e-05,
          -6.82186947e-05, -6.79320328e-06, 1.25478095e-04,
          2.35542102e-05, 8.21594149e-05, 8.03784642e-05, 3.20648433e-05,
          4.10508183e-05, -1.24008176e-04, 6.67151326e-05,
          5.89940901e-05, -3.15607285e-05, 3.49988804e-05,
          -3.28127426e-05, 5.60749722e-05, 9.51628826e-05,
          3.65013002e-05, -7.51397602e-05, -3.27967791e-05,
          -3.12980301e-05, 7.54002758e-05, 9.23955304e-06,
          -3.25454712e-05, -4.08306842e-05, 2.17717752e-05,
          7.76185771e-05, -4.92421304e-06, 3.08933704e-05,
          4.76600471e-05, 5.39122484e-05, -4.45466212e-05,
          5.13008308e-06, 4.33728201e-05, 2.66221796e-05, 6.68072005e-07,
          4.70682171e-05, 3.11154399e-05, -3.00872962e-05,
          -3.10734720e-07, -4.85076416e-05, 8.77659986e-05,
          1.88068279e-05, -5.33928687e-05, -8.51959048e-05,
          -3.97331132e-05, -9.72302405e-06, -2.63331676e-05,
          -1.83733380e-06, 6.08589435e-05, 4.12791778e-05,
          -7.10545719e-05, 1.39060849e-05, -1.67815542e-05,
          -1.11386935e-05, 3.89399211e-05, -1.05136332e-05,
          6.39536229e-05, 2.73958467e-05, -8.12975995e-05,
          -8.80427324e-05, -1.08486107e-04, -6.50064685e-05,
          -4.93359767e-05, -1.96102064e-05, -1.93902870e-05,
          5.41645677e-05, -2.90650642e-05, -6.93733891e-05,
          -9.29138623e-05, -1.17156254e-04, 1.22870537e-04,
          -2.97986708e-06, 1.16681455e-04, 8.23511073e-05,
          1.29001173e-05, 3.93256960e-05, 2.27784531e-05,
          -2.24574105e-05, 1.12702997e-04, 7.22843033e-05,
          5.79345142e-05, 3.35289733e-05, -4.56811540e-05,
          -1.48082802e-06, -2.45192114e-05, 5.77178871e-05,
          1.63751596e-04, 1.32118774e-04, 1.23828373e-04, 5.17781118e-05,
          -1.15341601e-04, -2.82838009e-05, -5.85328380e-05,
          -3.42099847e-05, 3.24113789e-05, -1.17778620e-06,
          9.44949570e-05, -7.15932765e-05, -7.77769819e-05,
          -1.14363000e-04, -4.24764548e-05, -3.38970385e-05,
          -1.21977871e-04, -6.66778869e-05, 4.50020752e-06,
          1.20232682e-04, 8.48256022e-05, 4.98083100e-05,
          -7.71687992e-05, 1.69162413e-05, -2.48787419e-05,
          -1.34971953e-04, -8.10157071e-05 ]
      - [ 3.66283020e-05, 1.31998153e-04, -6.64354593e-05,
          -5.43722563e-05, -4.10004832e-05, -2.71126337e-05,
          3.05398753e-05, 4.76363093e-05, -2.88874580e-05,
          -1.21746067e-04, -7.18601586e-06, 4.26342122e-05,
          -8.95342309e-05, -7.62231648e-05, 2.10930957e-05,
          5.10368809e-05, 4.82001778e-05, 2.13999210e-05,
          -6.15441750e-05, 3.87439140e-05, 2.85158831e-06,
          -2.76762912e-05, 7.25455830e-05, 5.75724443e-05,
          7.02351026e-05, 8.15421154e-05, -9.06452988e-05,
          -5.65733681e-05, -2.84430862e-05, -4.34158501e-05,
          5.48385033e-05, -4.25551916e-05, 2.21104256e-05,
          -8.23696973e-05, 4.03486811e-05, -1.44256364e-05,
          -3.34591605e-05, 6.85589112e-05, -1.12786656e-05,
          3.09781753e-05, 4.13699781e-05, -7.41736221e-05,
          -1.10465373e-06, 2.79001742e-05, 7.17021976e-06,
          -1.01225647e-04, 4.04910934e-05, 4.36210830e-05,
          -6.46366534e-05, 7.39120560e-06, -1.01107507e-05,
          -4.47309067e-05, -2.16715434e-05, -3.17909762e-05,
          -5.46780393e-05, 5.90590462e-05, 5.59734144e-05,
          8.09168923e-05, -6.67686254e-05, -1.59945703e-05,
          -5.16246655e-05, 1.22857877e-04, 1.34665694e-04,
          2.93675577e-04, -5.30707621e-05, -1.04287443e-04,
          6.13203447e-05, 2.66350035e-05, 4.04307175e-05,
          -4.73818509e-05, -2.73685782e-05, 4.00542813e-05,
          -3.85824660e-06, 3.56149903e-05, 5.91448588e-05,
          1.01473866e-04, 5.28242126e-05, -2.56843141e-05,
          5.25159339e-05, 5.72468743e-05, 4.23593920e-05,
          -1.16760393e-05, 3.80525926e-05, 1.05418956e-04,
          1.72359913e-04, 6.61347731e-05, -1.20848408e-05,
          -2.78028187e-06, -3.51435447e-05, -5.37533961e-05,
          4.02466867e-05, 2.09064146e-05, 2.80296117e-05, 1.91261115e-05,
          9.23312473e-06, -4.11978253e-05, -8.25555107e-05,
          8.24083236e-06, -2.46563122e-05, -1.23092512e-04,
          -1.56380702e-05, 6.23512533e-05, -2.79624801e-05,
          -5.34546598e-05, -5.54178150e-05, -5.90939578e-07,
          6.62293896e-05, 5.85752787e-05, 6.04761335e-05, 6.20819992e-05,
          -3.05611757e-05, -7.23791800e-06, 1.05597564e-05,
          4.65674493e-05, -7.02127363e-05, -7.11523171e-05,
          -5.86779970e-05, -5.03208103e-05, -2.49728146e-05,
          1.53453693e-05, -2.32439015e-05, -2.87488565e-05,
          3.80453203e-05, -9.08392321e-05, -1.81054420e-05,
          -5.92163406e-06, -7.17888979e-05, -5.87250979e-05 ]
      - [ 2.28474873e-05, 8.21570502e-05, 2.61341902e-05, 3.88192275e-05,
          4.09089589e-05, -1.99926981e-05, 3.24678804e-05,
          1.55307425e-05, -1.62037741e-05, -1.51478744e-05,
          -2.01556340e-05, -3.16965452e-05, -1.59952033e-05,
          -6.50937873e-05, -6.57282144e-05, -2.11846309e-05,
          5.99837658e-05, 1.04034543e-05, -7.08159278e-05,
          -4.14859969e-05, -5.35815125e-05, 3.89074667e-05,
          5.03824667e-05, 1.91256277e-05, 1.20868754e-05,
          -2.07514631e-06, -2.00201266e-05, -2.79568048e-05,
          -4.92987856e-05, -5.96968712e-05, -5.14980093e-05,
          -1.65334550e-05, -6.68294379e-05, -1.63309523e-05,
          3.77039687e-05, -3.19065803e-05, -1.56947390e-05,
          2.30552105e-05, -2.40013833e-06, -6.81186975e-06,
          9.33226966e-06, -5.87761060e-05, -2.30183468e-05,
          -4.40437434e-05, -4.04724124e-05, -3.43097745e-05,
          -2.88852661e-05, 7.52526903e-05, -8.74600175e-07,
          -1.43735524e-05, -1.44924452e-05, 1.38843270e-05,
          2.53428534e-05, 2.20419479e-05, 1.08573004e-05,
          -6.07853544e-05, 4.65258199e-05, 2.92540644e-05,
          4.30458385e-05, 4.63909200e-05, 1.59480824e-05, 6.77350454e-06,
          6.17821888e-06, 2.68716649e-05, -5.32123795e-06,
          4.77102803e-05, 1.48017316e-05, -2.25799595e-05,
          4.44465622e-05, 3.56889832e-05, 9.62961622e-07, 7.99922491e-05,
          -1.20062905e-05, -4.05938044e-06, -1.20320619e-05,
          -5.27330158e-05, -5.10103528e-05, -6.93772236e-05,
          -2.25460935e-05, -3.33396747e-05, 9.36871038e-06,
          -3.02537846e-05, -1.04697347e-05, -1.82943677e-05,
          -3.66010463e-05, -9.27125730e-05, -5.12983934e-05,
          -6.82790824e-06, -6.09871968e-05, -2.45238643e-05,
          -1.80336538e-05, 3.91617959e-06, 3.03877077e-05,
          -5.78965482e-05, -2.89521540e-05, -4.73286661e-07,
          -7.10597378e-05, -3.16681617e-05, 5.90048967e-06,
          6.06375988e-06, 2.59308690e-05, 5.34968058e-05, 5.46774172e-05,
          -4.61055715e-05, 1.70736530e-05, 3.56527962e-05,
          6.72786045e-05, 9.44974381e-05, 7.97435569e-05, 5.34598366e-05,
          5.36977641e-05, -4.13276666e-06, -2.83520094e-05,
          4.46647573e-05, 7.84069998e-05, 1.05161977e-04, 9.60446341e-05,
          5.57478379e-05, 1.81285377e-05, -2.63037396e-06,
          3.66870881e-05, 1.95161665e-05, 7.25554273e-05, 8.23538940e-05,
          4.88432306e-05, 3.35877448e-05, 4.67841937e-06,
          -4.67257378e-05 ]
      - [ -1.67775419e-04, 7.81298149e-05, -5.94080921e-05,
          -6.92118119e-05, -3.32442069e-05, -6.72462775e-05,
          1.40104548e-05, 9.93443973e-06, 5.19988971e-05,
          -3.53337309e-05, -2.29654670e-05, -1.11051151e-04,
          -7.19446107e-05, -3.31800402e-05, -8.62248053e-05,
          -4.70772611e-05, 1.41659830e-05, -4.40155818e-05,
          -7.83570795e-05, -2.89808067e-05, 3.92608308e-05,
          -2.15238506e-05, -2.45870797e-05, -5.18211018e-05,
          -7.24268875e-06, 4.44338766e-05, -7.45906436e-05,
          8.57839041e-05, -1.57061331e-05, -4.41584998e-05,
          -3.30832881e-05, 7.18548908e-05, -6.72604619e-06,
          6.27643249e-06, 2.17286652e-05, -1.76447993e-05,
          1.57169670e-05, 1.87691767e-05, -4.64578552e-05,
          3.20381369e-05, 3.36358207e-05, -3.80365818e-05,
          -7.51028638e-05, 1.40415359e-05, -3.09299357e-05,
          -9.78896205e-05, 4.16826988e-05, 3.47559217e-05,
          7.27465595e-05, -1.39787589e-05, 2.41038852e-05,
          2.45575666e-05, 2.32455732e-05, -1.99136230e-05,
          -1.21117613e-04, 3.17716535e-06, 1.72935455e-04,
          1.02502971e-04, 1.17295211e-04, -3.43133579e-05,
          -1.13579539e-04, -6.40667349e-05, 6.45988112e-05,
          7.04034683e-05, 3.90784844e-05, 3.67091525e-05, 6.39295249e-05,
          -1.98112775e-05, 4.31781809e-05, 2.36194028e-05,
          -5.00671667e-05, 8.30243080e-05, -8.28234333e-05,
          -2.54981533e-05, -7.57791422e-05, -4.77862568e-06,
          1.86803245e-05, -5.45334988e-05, -4.23110323e-05,
          -5.92146862e-05, 2.58128439e-05, -6.81747260e-05,
          1.43825437e-05, -9.04549324e-06, 1.10265964e-05,
          6.53224997e-05, -5.72665958e-05, -2.26780085e-05,
          4.22935045e-05, -6.03271292e-05, 1.97132449e-05,
          1.47363044e-05, 1.98334305e-06, -5.04469290e-06,
          4.25592661e-05, 7.28796585e-05, -8.02154318e-06,
          -4.27705891e-05, -1.91835861e-05, -7.14511698e-05,
          -5.21027778e-06, 1.25685576e-04, 1.03561506e-04,
          2.43177947e-05, 1.40677337e-04, 9.37309014e-05, 1.62668264e-04,
          1.47134022e-04, 1.32635119e-04, 1.01368329e-04, 1.10113659e-04,
          5.74054284e-05, -4.68371181e-05, -4.20022225e-05,
          -5.49646848e-06, 6.95354829e-05, 2.29065809e-05,
          -5.63172180e-05, -7.37656010e-05, -2.87009861e-05,
          -2.57614574e-05, -2.14536285e-05, 5.50856821e-05,
          2.54011375e-05, 1.64242065e-05, 6.04057859e-05,
          -1.48652707e-05, -1.27092178e-04 ]
      - [ 5.69299891e-06, 2.31499362e-05, 6.81630190e-05, 5.26417680e-05,
          5.86884162e-05, 1.16236170e-05, -2.86365794e-05,
          2.05717424e-05, -1.46233224e-05, 3.49367951e-06,
          -1.61138942e-05, -9.46640830e-06, 4.96168786e-06,
          -1.41581550e-05, 2.42321603e-05, -1.92572043e-05,
          2.13954299e-05, 1.19770148e-05, -2.41766611e-05,
          -2.41123216e-05, -2.78384814e-05, 6.32750016e-06,
          -2.00162394e-05, -4.06710524e-06, -1.06504885e-05,
          -2.75801540e-05, -1.19645101e-05, -4.40311578e-06,
          5.53873679e-06, 5.34293940e-06, -9.78577373e-06,
          5.22387127e-05, -4.85992714e-05, -5.47979243e-06,
          -2.54650276e-05, 2.00974246e-05, 2.78516000e-05,
          -2.09742793e-05, -2.50074954e-05, -1.32331015e-05,
          -1.41225901e-05, -2.61536661e-06, 1.66681002e-06,
          -2.73884980e-05, -1.39892336e-05, 5.44353088e-06,
          -1.97629834e-05, -2.21778901e-05, -5.33826960e-06,
          -1.94889599e-05, -1.76158810e-05, 4.95493077e-05,
          3.01135442e-05, 1.34814663e-05, 5.34626270e-06,
          -3.42985732e-05, 1.31069073e-05, -8.30034969e-06,
          7.81835261e-05, 5.55457445e-05, 4.50595253e-05, 6.92610865e-06,
          -1.04028686e-06, -6.76660638e-05, 1.58648563e-05,
          5.82426110e-05, 3.10947689e-05, 5.57520343e-06, 8.81992582e-06,
          1.77712645e-05, -8.12054077e-06, -3.71966030e-06,
          -1.85844438e-05, -1.51626509e-05, -1.39385274e-05,
          -4.15752584e-05, -5.91964381e-05, -6.71835951e-05,
          -1.97805948e-05, -1.14892719e-05, -2.58568671e-05,
          -2.22208164e-05, -3.24886532e-05, -2.29983234e-05,
          -4.93626030e-05, -5.55899787e-05, -2.94839811e-05,
          -2.29858251e-05, -6.00267667e-05, -2.97283514e-05,
          -3.96567011e-05, -6.75874389e-06, 1.85377448e-05,
          -3.80264210e-05, -1.91152067e-05, -1.40185211e-05,
          -5.99797131e-05, -1.79505532e-05, -1.27041767e-05,
          2.04834450e-05, 4.12149966e-05, 4.50850303e-06,
          -5.02854755e-06, -2.84441649e-05, 2.33012925e-05,
          2.19216927e-05, 3.70814050e-05, 4.76669156e-05, 3.95932875e-05,
          2.48566357e-05, 3.07418013e-05, -1.41874261e-05,
          2.25989552e-05, 6.82072423e-05, 8.66661867e-05, 7.15618007e-05,
          4.92352883e-05, 2.75837501e-05, 2.17633824e-05, 1.89606562e-05,
          1.31330244e-05, 4.49938670e-05, 3.27042508e-05, 5.02319635e-05,
          2.71282606e-05, 7.70516363e-06, 1.99201113e-05, 3.61120219e-05 ]
      - [ -1.16521252e-04, 4.48027167e-05, 3.78403784e-05,
          -2.27071214e-05, -1.77591719e-05, -9.93820322e-06,
          -2.54973838e-05, 3.92380134e-05, 3.97509721e-05,
          3.20629188e-05, 3.83872248e-05, 1.59467363e-05, 1.09182882e-04,
          8.19037159e-05, -5.88840048e-05, 1.84317469e-05,
          3.13527562e-06, 1.08976883e-05, -6.40077269e-05,
          -5.99784398e-05, -2.89773943e-05, -2.37568511e-05,
          -2.94521433e-05, -4.56359339e-05, 7.82327425e-06,
          -5.94976245e-06, -3.81993741e-05, 6.17287587e-05,
          3.73851217e-05, 1.69947216e-05, 4.61909949e-05, 1.17650736e-04,
          -7.07283180e-05, -3.27218877e-05, -3.98183947e-05,
          3.27640919e-05, 5.57955500e-05, -9.79624310e-05,
          -5.24213465e-05, -2.44278526e-05, -8.90672527e-06,
          3.39118815e-05, -2.09096142e-05, -7.67696918e-07,
          9.37998357e-06, 1.41433575e-05, -5.13741325e-05,
          -4.98662439e-06, 2.73387341e-05, -1.55240905e-05,
          -3.15195466e-05, 8.84715846e-05, 7.48856473e-05,
          -1.91265372e-05, -2.32253042e-05, 8.37618354e-05,
          6.96007555e-05, 2.16461249e-05, 1.23419813e-04, 2.43131435e-05,
          -7.75554963e-06, 3.59195983e-05, 3.79798257e-05,
          -6.85392151e-05, 4.85972705e-05, 4.71531312e-05,
          3.12562224e-05, -2.55007581e-05, -1.41058626e-05,
          3.66012409e-06, -2.96097332e-05, -4.16828552e-05,
          -1.99828464e-05, 2.40932059e-05, -7.90346530e-05,
          -1.31314635e-04, -9.55757932e-05, -6.62607999e-05,
          -6.58478530e-05, -4.45102269e-05, -2.35299885e-05,
          -3.59088881e-05, -9.09826558e-05, -1.15754388e-04,
          -9.45176507e-05, -5.08376252e-05, 2.30940841e-05,
          9.02962984e-06, -3.96837038e-07, -3.78550430e-05,
          -3.52218703e-05, -2.41882135e-05, -1.61301177e-05,
          -1.16575632e-06, 5.51164594e-05, 1.30576764e-05,
          5.46785268e-05, 3.12688899e-05, 2.48668948e-05, 4.81433563e-05,
          5.04128984e-05, 7.22368568e-05, 7.16906361e-05, 9.71371082e-06,
          1.09145163e-04, 7.16729264e-05, 4.74576664e-05, 1.31708721e-05,
          1.24435774e-05, 5.17210319e-05, 9.72429407e-05, 4.24826030e-05,
          5.95584140e-07, 1.94018921e-05, 7.65111108e-05, 3.04159785e-05,
          1.23886014e-06, -4.30612317e-06, 1.13841934e-05,
          -2.37835102e-05, -6.08038245e-05, 2.86714130e-05,
          7.37221262e-06, 6.54752228e-07, -5.13893701e-06,
          1.24539374e-05, 2.20351012e-05, -2.44420062e-05 ]
      - [ -1.10133362e-04, -6.12755975e-05, -1.26420113e-04,
          -8.83641042e-05, -8.31502839e-05, 2.48680062e-05,
          2.21921182e-05, 2.43465747e-05, 2.87486000e-05, 3.27432426e-05,
          -3.31527335e-05, -6.97774740e-05, 3.01813252e-05,
          -2.80566019e-05, -1.92600346e-05, 3.72380491e-05,
          -4.67573409e-05, -1.01898104e-05, 7.94893931e-05,
          1.64940866e-05, 1.72823147e-05, -3.30778516e-06,
          2.24827836e-05, -6.30815266e-05, -1.48276067e-05,
          2.20787133e-05, -3.42488274e-05, 7.84355070e-05,
          7.38937815e-05, 2.81069770e-05, 9.16445715e-05, 1.05588188e-05,
          2.55546402e-05, 8.52425819e-06, -1.23188838e-05,
          6.72238239e-05, 3.86022548e-05, -3.17196136e-05,
          1.09036810e-05, 8.57257692e-05, -8.86685666e-06,
          4.98082918e-05, 8.39357745e-05, 5.20247813e-05,
          -2.59899862e-05, -2.11948918e-05, -1.01189953e-05,
          -6.27605477e-05, -8.98644976e-06, 2.96117123e-05,
          -4.32956585e-06, -1.08155175e-04, -1.05243547e-04,
          -1.35029268e-05, -8.16743632e-05, 6.93854236e-05,
          2.66671996e-05, -4.78344464e-06, -6.80259182e-05,
          -7.98611291e-05, -5.64244583e-05, -3.64178668e-05,
          1.79540075e-05, -1.81466348e-05, -3.79910307e-05,
          -9.38032972e-05, -2.72218549e-05, -1.67010126e-06,
          -1.67218950e-05, -4.27391242e-05, 2.76895462e-05,
          9.97524839e-05, 2.61610694e-05, 9.57681914e-06, 1.41718592e-05,
          4.66604979e-05, 6.65421248e-05, 2.38480898e-05,
          -3.42146814e-05, -1.46659486e-05, -1.98613216e-05,
          1.69776831e-05, 1.59887531e-05, 1.75678360e-06, 3.65372398e-05,
          8.78489082e-05, 7.34287169e-05, 1.00196485e-05, 8.37516636e-05,
          2.23606930e-05, 8.08911773e-06, 9.16558292e-06,
          -3.92511429e-05, 4.60239607e-05, 7.94493753e-05,
          5.34210194e-05, 8.21008362e-05, 3.74732153e-05, 1.62003107e-05,
          -3.21483421e-05, -1.51136010e-05, 5.03724696e-05,
          6.02149557e-05, 8.73819736e-05, 7.36354123e-05, 3.72565205e-06,
          1.36080928e-06, -3.95439456e-05, -8.18910412e-05,
          -5.18865054e-05, 3.66740011e-07, 4.86242025e-05,
          -5.27710472e-06, -9.33625051e-05, -1.24013284e-04,
          -4.06132749e-05, -3.91099456e-05, -1.04660699e-04,
          -5.96047284e-05, -2.23986353e-05, -2.08270885e-05,
          -5.21529546e-05, -5.06974429e-05, -7.19226882e-05,
          -2.45564461e-05, 9.07747653e-06, -5.19370078e-05,
          -8.22476359e-05 ]
   uncompressed_sv_total: 149
   uncompressed_support_vectors:
      - [ 90., 940., 4138., 4139., 4147., 969., 20., 16., 1661., 1730.,
          -1479., -1424., -1540., -140., 1822., -1052., 578., -2092.,
          -194., -335., -312., 142., 791., 617., -1110., 1724., 1892.,
          636., 1528., 1623., 308., 304., -428., -710., -1725., -280.,
          -1265., -2069., -357., -1181., 479., 751., 1290., 2311., 1679.,
          1277., 66., 206., -1080., 380., -53., 964., 1411., -1149., 54.,
          504., 388., -601., 1293., -1280., -951., 1414., 231., 1297.,
          8070., 7490., 5338., 4225., 5379., 7331., 7792., 7970., 6127.,
          2678., 2639., 2754., 2816., 3334., 5710., 7518., 5422., 5288.,
          5982., 5787., 5952., 6152., 5291., 7371., 6498., 4370., 2678.,
          3774., 3464., 2937., 3118., 7338., 5512., 5358., 4885., 6124.,
          5193., 4893., 4867., 5081., 5033., 4209., 3278., 3525., 3559.,
          3297., 4714., 5426., 5078., 4150., 3185., 2722., 2597., 3151.,
          4282., 5318., 5448., 3173., 3061., 2704., 3167., 3344., 2941.,
          5053. ]
      - [ -192., -270., 457., 730., 325., -324., 69., 223., -327., 236.,
          1503., 1767., 3335., 1324., 545., 568., 719., -2891., -1600.,
          -2640., -2800., 1182., 372., -512., -1621., 1366., 521., -370.,
          988., -24., 834., -333., -1338., -655., 1320., 2167., 1875.,
          -334., -93., -170., 565., -626., -103., 419., 113., 605.,
          1032., 2347., -553., -1143., -518., -726., -1738., -97.,
          -1056., -1153., 1006., -1368., -1279., 629., 792., 675., -551.,
          -1333., 3992., 4336., 4521., 4856., 5077., 5574., 5617., 5569.,
          2563., 2496., 2639., 727., 2255., 5082., 5195., 5320., 2889.,
          2823., 1424., 1842., 1762., 2294., 4594., 4530., 2349., 2284.,
          1187., 1012., 1372., 3986., 4332., 4439., 4114., 2043., 1382.,
          1501., 1437., 2330., 4129., 4468., 3637., 1814., 75., 329.,
          197., 1635., 3394., 3575., 4407., 3075., 2534., 832., 1292.,
          2853., 2932., 1987., 2910., 4140., 2653., 521., 1310., 1547.,
          2869., 4543. ]
      - [ -1314., 2057., 644., 2105., 1465., 3943., 1021., 2908., -1970.,
          -3662., -2061., -2875., -2678., -4678., -2621., -2758., 2151.,
          1750., 1951., 4034., 3257., 2596., 491., 2041., -1216., -353.,
          -333., -767., -806., -2360., -2059., 1047., 1271., 2386.,
          1835., 270., -1083., 2760., -158., 1881., -312., -1598.,
          -1388., 2687., 3012., 127., -844., -245., 626., 147., 698.,
          -1551., -2345., -2519., 1118., 481., -639., -4854., -1224.,
          -168., 73., -321., -287., -727., 1706., 3125., 4442., 2417.,
          1697., 3489., 3925., 4602., 4712., 3798., 3839., 5683., 6376.,
          4270., 2835., 4272., 4001., 3418., 2453., 5330., 6335., 6124.,
          4289., 4733., 5074., 5291., 4243., 5797., 6990., 5674., 3285.,
          3395., 3849., 4352., 4527., 4000., 5067., 4404., 5534., 3117.,
          5356., 2128., 1224., 1755., 2474., 2715., 6962., 6353., 3770.,
          1021., 2878., 1767., 1209., 4143., 6018., 7003., 2763., 4526.,
          5646., 4162., 5775., 6199., 3909., 5183. ]
      - [ -727., 1384., -322., 2497., 2343., 2225., 2090., 449., -655.,
          658., 585., -30., 36., 247., -142., 504., 418., 1., 78.,
          -3435., -3921., -3846., -752., -440., 1453., 1464., 812.,
          1309., 3613., 3383., 2861., -925., 154., 1160., 2431., 1899.,
          1763., 559., 795., 1268., 1460., -361., -2046., -1015., -575.,
          -627., 765., 863., 156., -2452., -1741., -344., 116., 204.,
          873., -203., -1906., 308., -548., -1057., 276., -640., 363.,
          -2655., 4525., 5568., 5616., 3007., 2199., 2273., 4190., 3427.,
          5223., 5054., 2869., 698., 532., 357., 2320., 1132., 4822.,
          5513., 2320., 1635., 2733., 3036., 2818., 3216., 5115., 5124.,
          2500., 2553., 2819., 3547., 3575., 5421., 3198., 1710., 1865.,
          2849., 4215., 4393., 3727., 5126., 3006., 3469., 1984., 1033.,
          503., 547., 1987., 2961., 2792., 3958., 2863., 2280., 442.,
          1370., 4783., 4913., 6348., 7370., 6452., 2585., 504., 502.,
          3981., 5011. ]
      - [ -860., -2736., -1744., 1595., 1431., 1092., 394., 187., -497.,
          1106., 1615., 740., -5., -291., 1981., 969., -2520., -1414.,
          -1898., -1044., -521., -8., 884., 1632., 2466., 1197., -66.,
          -347., -1692., 8., -467., 63., -97., 1177., 740., 3156., 3284.,
          3178., -463., 768., -495., -106., -390., 227., 487., 135.,
          -540., -418., 287., -291., -1833., -1324., 305., -957., 644.,
          -1366., -5474., -1000., -280., 791., -567., 159., -470., 129.,
          2114., 3538., 3620., 4069., 1785., 4090., 5952., 5709., 2537.,
          4302., 2211., 652., 451., 581., 3717., 6437., 5970., 3124.,
          2256., 4908., 5407., 5032., 5804., 6514., 5176., 4661., 2302.,
          1647., 2314., 1380., 4277., 5021., 2285., 2753., 4974., 4054.,
          3472., 3672., 3391., 4472., 2057., 1760., 1052., 1391., 1501.,
          793., 2832., 4212., 2493., 3783., 3373., 1654., 215., 997.,
          4322., 4998., 5242., 7694., 4416., 2907., 1959., 1689., 4058.,
          6757. ]
      - [ -154., 673., 2798., 3854., 2438., 5256., 1942., 140., 589.,
          1041., 1351., 242., -24., -91., 1218., -220., -105., -1683.,
          -1412., -732., -764., 229., 588., -1689., 781., 1294., 862.,
          92., 1285., 1383., 292., 2071., 537., -640., 1314., 7., -1.,
          -18., -1528., -5224., 1857., 446., -608., -1204., -226., 88.,
          407., 1870., -1985., -996., -1151., 471., 354., -365., 383.,
          -505., 462., 1853., 447., -766., -519., 2., -96., 386., 4910.,
          6147., 5482., 3238., 2158., 3804., 4920., 6948., 4307., 3541.,
          1181., 322., 194., 249., 2156., 4212., 3349., 2679., 3974.,
          4242., 3976., 3685., 3130., 3749., 3353., 3630., 1508., 1268.,
          969., 1927., 2164., 3237., 3479., 4306., 4266., 4431., 3339.,
          2872., 2756., 4224., 1653., 704., 1476., 1330., 376., 862.,
          5437., 6078., 1773., 2732., 2139., 755., 284., 1705., 3497.,
          3725., 3280., 4265., 3873., 958., 591., 2322., 3510., 4536. ]
      - [ 2948., 2395., -1477., -1148., -781., -269., 180., -1031., 190.,
          -1754., 373., 1988., 596., 2185., 1768., 191., 1519., 70.,
          -1690., -3479., -3070., -2366., 743., -621., 1684., 1253.,
          -287., 2593., 1309., 1565., 553., -1055., -359., -1106.,
          -1509., 743., 2744., 2783., 48., -538., 2088., 1430., 1775.,
          -189., 200., 192., -1629., 23., 91., 63., 459., -258., -581.,
          -1121., 1050., 465., -1042., 1087., -2877., -1065., -341.,
          -265., 313., -553., 2520., 4041., 2389., 1890., 2095., 4717.,
          5634., 5155., 3570., 3202., 5137., 2848., 580., 1069., 5484.,
          5275., 3801., 4042., 2778., 2395., 4174., 4206., 3619., 6467.,
          1446., 2169., 1621., 3143., 2757., 2209., 4003., 5571., 3185.,
          2818., 3365., 3197., 4698., 4283., 3492., 5270., 4550., 3664.,
          4283., 2147., 1816., 992., 2525., 5007., 1977., 1543., 1727.,
          2552., 559., 1017., 3644., 4645., 1348., 1455., 5811., 4599.,
          2829., 2381., 3455., 4487. ]
      - [ -2198., -1879., 2169., 3445., 4926., 2709., -342., -108.,
          1083., -574., 1621., 574., 402., 1560., -333., -274., -7.,
          110., -2712., -2242., -2187., -1019., -246., 79., 1971., 1738.,
          840., 766., 2350., 699., 370., -169., -333., 258., 3086.,
          2480., 1666., 207., 1346., -3439., -4286., -2776., -3086.,
          -316., -449., -1326., -198., 1805., 448., -168., 209., -242.,
          -116., -314., 615., 1179., -619., -598., -1162., 334., 0.,
          949., -327., 1642., 5312., 5285., 3877., 2365., 4370., 5529.,
          7264., 6784., 3521., 3272., 977., 844., 368., 3112., 6783.,
          6572., 4179., 3074., 2452., 3970., 3569., 2995., 6554., 6835.,
          2661., 2728., 1874., 3144., 1832., 2017., 5742., 6217., 2387.,
          600., 2738., 4128., 3838., 4029., 4508., 4127., 4944., 5940.,
          2936., 1240., 553., 2672., 5376., 5133., 5514., 5118., 4993.,
          1400., 640., 1788., 4545., 4991., 5793., 5996., 4228., 1038.,
          1290., 1623., 3687., 5710. ]
      - [ 22., 3157., 5319., 4811., 1984., -111., 201., -90., 2854.,
          176., -1532., -2344., -1556., 2854., 1467., 2543., -1796.,
          -997., -368., -50., 424., 508., 496., -570., -773., 1939.,
          611., -18., -611., 406., 297., -1019., 30., -2770., -894.,
          -520., -1929., -256., -81., 366., 363., 1221., 1722., 1473.,
          1559., 1248., 589., 321., 39., -739., -281., 13., -267., 374.,
          -460., 806., 46., -793., -565., 839., 92., -761., 252., 772.,
          6824., 5079., 4489., 4929., 6866., 8141., 7971., 8290., 4286.,
          1832., 2134., 2152., 2230., 3928., 6543., 7377., 3554., 4631.,
          5144., 4744., 4382., 4188., 2064., 3694., 5491., 2159., 2915.,
          2090., 1607., 2886., 2821., 3283., 5596., 4016., 4800., 4318.,
          3937., 4248., 2943., 2650., 6811., 3895., 3290., 2339., 2763.,
          2762., 2585., 2107., 4295., 3017., 2527., 1995., 1561., 1310.,
          2170., 2246., 4454., 4083., 2833., 1565., 1256., 1887., 3424.,
          3620. ]
      - [ 381., 879., 3973., 3781., 4100., 1134., -469., -294., 1379.,
          2275., 33., -250., 140., 1392., 2731., 198., -1696., -3214.,
          -21., -237., -423., -389., -361., 426., 1058., 2715., 3843.,
          2062., 2765., 3479., 914., 2776., -495., -1560., -2970.,
          -1708., -2224., -2109., -550., -516., 132., 1091., 559., 2653.,
          1801., 1318., 264., 622., -1021., -676., -192., -264., -401.,
          -408., 609., -943., 390., 230., -151., -395., -892., 975.,
          526., 1012., 7379., 7029., 5229., 4005., 4438., 6632., 7129.,
          7592., 4153., 2559., 1489., 1356., 1684., 2338., 5791., 7748.,
          5236., 4146., 5097., 4785., 4809., 5069., 4331., 7048., 5722.,
          4295., 3251., 3864., 3657., 3435., 2672., 4886., 4291., 4122.,
          3350., 4554., 3806., 3041., 3544., 3920., 3638., 3725., 4053.,
          4391., 4421., 4068., 4244., 4416., 3497., 3310., 2128., 2268.,
          2167., 2098., 3295., 4289., 5262., 2342., 2423., 1845., 2044.,
          2391., 3836., 4918. ]
      - [ 669., 2153., 4238., 4321., 4402., 1866., 1728., 1182., 2808.,
          971., -844., -744., -759., -55., 2405., 1301., -1478., -1894.,
          415., -58., -148., 167., 521., -1160., 2004., 2691., 3572.,
          1664., 2710., 2987., 633., 2077., -674., -2000., -3363., -976.,
          -2126., -2755., -556., -524., 389., 1771., 1181., 2798., 2563.,
          1378., 988., 484., -1652., -1405., 310., 1063., 907., -388.,
          -917., -1143., 389., 304., 546., -578., -776., 684., 434.,
          822., 7687., 6143., 4400., 3755., 4666., 6790., 6568., 5980.,
          3948., 1793., 1666., 1926., 1897., 2133., 5829., 6593., 4096.,
          4516., 5203., 4944., 5076., 5187., 4065., 6426., 5396., 4101.,
          3090., 3638., 3078., 2907., 2439., 5105., 4408., 4454., 3681.,
          4958., 3962., 3689., 3572., 4134., 4333., 3165., 2815., 4056.,
          3399., 2614., 3956., 4428., 5148., 3949., 2526., 2903., 2593.,
          2438., 2125., 4763., 5021., 3644., 1756., 1990., 2226., 2344.,
          1670., 3986. ]
      - [ 275., -955., -3096., -2531., -2084., -518., -1643., 672.,
          -744., -592., -91., 284., 990., 714., 266., -209., -53., 1797.,
          1218., -120., 326., -72., 629., -282., -141., -2713., -2883.,
          -88., -1781., -3327., -860., 323., -123., 1102., 1446., 2677.,
          2414., 1377., 929., -971., 402., 1160., 2008., -804., 471.,
          1712., 708., -2325., -1383., -171., -129., 1726., 892., 79.,
          -1188., -348., 346., -1100., 508., 1057., 796., 55., -545.,
          1541., 1101., 693., 2076., 2977., 3490., 3960., 3239., 3460.,
          2086., 3582., 4393., 4762., 4606., 4150., 3484., 3189., 2669.,
          1917., 882., 2080., 1158., 500., 1825., 4050., 3175., 2239.,
          2371., 4380., 3579., 2793., 3456., 1829., 3197., 3872., 3666.,
          3363., 3730., 3995., 2715., 2597., 2098., 1646., 1428., 764.,
          1095., 1476., 870., 3445., 3193., 763., 1157., 1492., 1534.,
          689., 2276., 5958., 4062., 2444., 656., 835., 534., 225.,
          2383., 4655. ]
      - [ -700., -1846., -603., -381., -326., 70., 309., -280., 326.,
          1601., 2871., 1457., 2640., 2293., 408., 272., -249., -486.,
          -465., -1555., -742., 31., -232., -557., -424., -981., -1469.,
          -348., -1262., -2392., -156., -99., -400., 832., 620., 2993.,
          1788., 741., 858., -723., 1311., 1373., 1030., -1275., 184.,
          1765., 691., 1253., -887., -491., 436., 1527., 472., 54.,
          -441., -639., -1089., -1913., -1676., -713., -927., -1958.,
          -2039., -927., 3770., 2904., 4307., 4825., 4862., 4376., 3391.,
          2282., 3960., 3345., 3305., 3943., 3396., 3207., 2448., 2240.,
          3239., 1716., 821., 2525., 1260., 659., 1450., 2355., 2652.,
          3881., 4037., 4652., 3900., 3740., 3076., 2441., 3492., 3418.,
          3818., 2825., 3386., 4303., 2522., 3183., 1177., 1193., 1392.,
          1223., 1270., 1373., 915., 2483., 2069., 879., 1562., 1885.,
          1656., 658., 1321., 3057., 3437., 2585., 1638., 1905., 1623.,
          1218., 2621., 3959. ]
      - [ -1918., 1611., 2636., 1938., 588., 657., 1461., 2188., 1308.,
          274., 57., -231., -870., -1046., -727., 282., -2357., -709.,
          153., 217., 171., -171., 436., 431., 501., 172., -665., -739.,
          -643., -2161., 123., 0., -495., -825., 208., -167., -1121.,
          1273., -304., -178., 1500., 1395., 230., 945., 1616., 436.,
          132., -705., -2161., -1629., -213., 321., 112., -59., -15.,
          -160., 356., -143., -2084., -3787., -3366., -334., 53., 61.,
          2982., 2219., 2716., 2548., 1324., 1311., 2451., 2792., 3302.,
          1148., 879., 981., 1312., 1490., 1587., 1738., 2921., 2929.,
          1791., 1239., 2535., 2825., 2314., 1309., 3643., 2540., 1795.,
          1383., 2971., 3803., 1293., 628., 3375., 2471., 2556., 4121.,
          3933., 2921., 2348., 716., 2378., 2025., 1746., 2235., 2800.,
          1886., 1906., 1683., 2907., 2125., 1813., 927., 886., 1293.,
          1965., 2160., 3966., 3209., 3004., 2593., 2070., 1652., 2109.,
          2183. ]
      - [ -527., 290., 2865., 1087., 552., 2264., 1606., 2317., 1807.,
          2376., 359., 236., -37., 39., 999., -167., -602., -1372.,
          -1418., -871., -845., -463., 101., 895., 690., 401., 1497.,
          953., 1802., 1516., -102., -1418., -1540., -458., -1422.,
          -398., -1694., -1304., -209., -803., 901., 309., 1676., 1341.,
          1473., 1301., -199., -358., 412., -1241., 242., 995., 311.,
          244., -574., 276., 823., -626., -521., -225., -131., -1081.,
          955., -214., 3963., 3994., 3705., 1899., 1446., 2026., 2638.,
          2279., 3767., 1490., 911., 896., 857., 907., 2157., 3159.,
          3984., 1768., 3064., 3745., 3691., 3441., 2209., 3655., 4762.,
          2399., 1847., 2569., 1966., 2204., 1906., 4688., 4016., 2688.,
          3404., 3732., 3214., 3182., 2917., 4451., 5605., 3645., 2564.,
          1765., 2419., 2623., 3029., 4886., 4326., 2771., 1526., 1887.,
          1443., 982., 2462., 4228., 3081., 2914., 1931., 985., 863.,
          1649., 2873., 3796. ]
      - [ 437., 467., -733., 1048., 2259., 1566., 525., 729., -717.,
          1840., 1203., 339., 278., 282., 2062., 474., -1126., -1321.,
          -1087., -551., -951., -1114., -2126., -89., 856., 340., 682.,
          -263., 1335., 1572., 606., -29., 390., 303., -246., 894.,
          -817., -1643., -175., -105., 178., 1183., 683., -864., 1107.,
          1224., 319., 209., -2., -1479., 689., 96., 543., 235., -33.,
          684., -781., 172., -935., -344., -398., -970., -109., 56.,
          5947., 5473., 5475., 4602., 3955., 3860., 3287., 4351., 6151.,
          4550., 1681., 1091., 892., 962., 2252., 4276., 4542., 2597.,
          3257., 3783., 3531., 3032., 2396., 3531., 4930., 2238., 1744.,
          2377., 1845., 2074., 2230., 2661., 3828., 3303., 3428., 3386.,
          2911., 2975., 2271., 3195., 3666., 2081., 2033., 1640., 1797.,
          2396., 2553., 3019., 4210., 2539., 1235., 1206., 1027., 875.,
          1503., 1488., 2715., 2936., 1843., 786., 776., 1526., 1891.,
          884. ]
      - [ 2029., 315., 1696., 476., 475., 636., 792., -506., -110.,
          -134., 1114., 389., 370., 1493., -62., 1186., 350., 101.,
          -1779., -2358., -2461., -2111., -827., -2820., 404., -426.,
          1724., 1657., 1899., 820., 123., -5., 543., 743., -1961.,
          -1175., -1705., -1383., 944., -189., 794., -51., 1048., 1732.,
          927., 671., -992., 356., -307., 98., 171., 812., 226., -145.,
          405., 739., -419., 367., -437., 27., -83., 188., 15., -28.,
          3147., 4407., 4444., 3378., 2215., 2802., 3042., 3490., 2448.,
          2898., 1304., 1349., 1134., 1587., 3952., 4010., 5334., 2463.,
          2009., 2554., 2425., 2083., 3519., 4496., 6004., 4748., 2834.,
          3095., 2887., 2814., 4561., 6069., 5805., 3335., 2981., 3625.,
          2375., 2543., 3066., 5757., 5068., 3057., 2812., 2358., 2571.,
          2485., 3332., 4888., 4579., 3012., 1763., 1928., 1424., 2147.,
          4189., 3945., 4427., 3937., 2463., 1071., 873., 2312., 3919.,
          4214. ]
      - [ -174., -59., -337., -968., 1710., -499., -266., 514., 740.,
          -56., 165., -152., 1490., -844., 896., -1372., 763., 1274.,
          1421., 2286., 377., 2298., 157., 334., 74., 72., 858., -2066.,
          -2497., -1771., 821., 972., 1126., 348., -200., 1260., 1353.,
          2028., 117., 461., 201., -4., 73., 636., 780., -1037., -201.,
          174., 376., 1091., 252., 58., -321., 823., 625., -13., -1804.,
          -3148., -211., -570., 232., -533., -440., 284., 4498., 5091.,
          5267., 5192., 3778., 5843., 3720., 4486., 4922., 5196., 5145.,
          6122., 4862., 4942., 4926., 4032., 5587., 5478., 4145., 2388.,
          1503., 3366., 5341., 4228., 5660., 5434., 3540., 2202., 2329.,
          1821., 2873., 5636., 4232., 3722., 3470., 2690., 2635., 2390.,
          2377., 3499., 2831., 2794., 2993., 3468., 3784., 2579., 2461.,
          2882., 1834., 2257., 1824., 1784., 1751., 1543., 2139., 2647.,
          3522., 3198., 2283., 1558., 1098., 1893., 1928., 1590. ]
      - [ -1089., -147., 87., 15., 348., 1251., -269., 158., 979., 231.,
          -6., 102., 62., 501., 1244., 1265., 482., 95., -6., -108.,
          -465., -238., 692., 1023., -43., 25., -401., -415., -27.,
          1081., -942., -1484., -489., -336., -593., 118., -446., -1594.,
          -696., -344., -186., -494., 532., 376., 1065., 205., -154.,
          1477., -203., -36., -440., -58., 87., 509., 765., 94., 308.,
          169., 341., 118., 677., -900., -612., 361., 1377., 1299.,
          1285., 1171., 1252., 3407., 3171., 4104., 2313., 1263., 1120.,
          1078., 1208., 1615., 3474., 5267., 1510., 1081., 1086., 1310.,
          1271., 1302., 2174., 3063., 1065., 803., 1057., 1817., 2811.,
          2489., 3180., 3358., 2709., 1892., 2243., 2438., 3036., 2688.,
          4824., 6314., 2484., 2074., 2228., 1638., 1539., 1645., 3328.,
          5119., 2473., 2580., 1816., 982., 787., 2043., 3221., 3840.,
          2422., 2647., 2333., 1208., 2377., 3932., 3036., 3165. ]
      - [ -2048., 925., 939., 1373., 1810., 2583., 140., -665., 156.,
          -2227., -635., 1498., -2392., 569., -175., 1466., 1561., 2861.,
          1918., 864., 777., 1085., 223., -10., -1505., -718., -1964.,
          -892., -470., -634., 69., 84., 1144., -382., 1032., -506.,
          -460., -1246., -1106., -432., -264., 732., 231., 756., 779.,
          44., 802., 1094., 193., -405., -233., -2161., -1959., 193.,
          51., 74., -1512., 205., -355., -969., -2633., -2662., 233.,
          -436., 1850., 1113., 1527., 2533., 3452., 2333., 784., 2919.,
          1250., 1043., 1383., 2398., 2884., 3067., 709., 2520., 2065.,
          1997., 1776., 1022., 1245., 2685., 769., 1436., 2093., 1704.,
          1688., 1108., 820., 1822., 1135., 3406., 960., 904., 1160.,
          3028., 1932., 2048., 2050., 2130., 1506., 558., 811., 1016.,
          911., 1166., 1330., 2104., 791., 663., 529., 1637., 1445.,
          413., 719., 1352., 2798., 597., 797., 3365., 4523., 1680.,
          481., 1076. ]
      - [ 3002., -222., -1987., -2255., -1411., 913., 1404., 2476., 610.,
          1455., 164., 1715., 1313., -771., -1135., -1352., 1889., 2733.,
          977., 2569., 3889., 762., 1287., 559., -741., -1890., -593.,
          -864., -1669., -715., -1872., -1235., -2993., -332., 376.,
          -197., -738., -563., -2704., -1070., -562., -2707., -1363.,
          -433., -391., -1098., -1747., -622., 3506., 2251., 910., 164.,
          1975., 2321., 3028., 3085., 2738., 1555., 1977., 1232., 2514.,
          2448., 1739., 2360., 2316., 1762., 1657., 1471., 1495., 2251.,
          3192., 3030., 2700., 3089., 4058., 3065., 3325., 2629., 1997.,
          1426., 2629., 2615., 2305., 2331., 2097., 2600., 3607., 3361.,
          3271., 2056., 943., 700., 1917., 2059., 1674., 2047., 5151.,
          1954., 1296., 1645., 2508., 2555., 4272., 6600., 7300., 5605.,
          1713., 595., 1849., 5018., 6751., 7306., 4588., 4705., 2762.,
          2368., 4269., 4463., 4270., 4515., 2082., 1649., 1481., 1244.,
          1886., 1912., 1869., 2174. ]
      - [ 1562., 2269., 1691., 656., 3340., 1681., 1060., 186., 485.,
          1097., 752., -48., -476., 870., 2342., 370., -85., 2270.,
          1848., 2600., 2663., 1973., 596., 680., 444., 569., 2270.,
          1951., 943., 1156., 1033., -1554., -1119., -45., 905., 680.,
          518., 8., -293., 1486., 1729., 245., -1421., -759., -676.,
          -662., -71., 106., -769., 23., 257., 506., -78., -221., 216.,
          -636., -532., -1755., -153., -81., 313., -631., 2944., -1176.,
          3442., 3471., 3903., 1230., 3110., 3063., 2724., 2302., 1765.,
          539., 948., 500., 402., 682., 1346., 1276., 1427., 1932.,
          2524., 2468., 1935., 2125., 1132., 1116., 2238., 1971., 2370.,
          2177., 1671., 1920., 1141., 1974., 2235., 867., 729., 530.,
          236., 22., 561., 2326., 2427., 1647., 1299., 549., 422., 756.,
          1023., 1130., 4021., 685., 623., 556., 758., 951., 778., 1294.,
          5908., 2935., 113., 75., 281., 981., 2942., 3416. ]
      - [ 1020., 694., 3081., 3408., 2225., 1363., -1233., 495., 1158.,
          584., -979., -1020., -1152., -627., 405., 711., -159., 1721.,
          1248., 1924., 1439., 653., 258., 48., -4., -1324., -614.,
          -1118., -2053., -205., -609., -2228., -371., -452., -659.,
          -281., 391., 573., -735., -957., -611., -816., -999., 414.,
          -65., -467., 938., 1836., 94., -1308., 557., -168., -201., 51.,
          631., 536., 144., 299., -1154., 145., -46., 133., -1378.,
          -1988., 5074., 4932., 3579., 3072., 1933., 1831., 3071., 2955.,
          4672., 2026., 1457., 1410., 1418., 1467., 1715., 2737., 4687.,
          2617., 2754., 2562., 2521., 2427., 1074., 1020., 4350., 2906.,
          3332., 2550., 2473., 2425., 1631., 3344., 3937., 2298., 1689.,
          1515., 1269., 1105., 2907., 4649., 4347., 3322., 1733., 978.,
          779., 1271., 2310., 3494., 6004., 6088., 3401., 1670., 1425.,
          1677., 1837., 1700., 6824., 6443., 3068., 1163., 1122., 1345.,
          1746., 3928. ]
      - [ 3., 673., 2305., 2253., 2999., -368., -1318., -97., 1099.,
          1876., -148., -690., -682., 1407., 2161., 115., -3063., -767.,
          790., 826., 1096., 454., 905., 517., 1912., -1503., -2345.,
          -1508., -2437., -1126., 777., 1070., -121., 1041., 1373., 601.,
          1722., 1083., -861., -207., 1074., -1518., -115., 109., 63.,
          -266., -940., 354., -2262., -162., -656., -331., -602., -355.,
          1350., 466., 112., -1526., 329., 108., 59., 13., 225., -407.,
          3725., 3655., 3233., 3777., 4107., 4272., 3200., 4415., 2693.,
          2618., 1434., 1506., 1378., 2309., 4737., 5647., 2729., 2683.,
          3752., 3964., 3628., 3148., 4247., 6339., 5120., 2827., 2799.,
          3348., 2617., 2754., 3527., 5726., 4295., 2799., 2015., 2127.,
          2568., 2109., 3817., 4733., 3158., 2554., 1433., 1887., 1513.,
          1996., 4184., 4542., 3626., 3544., 1998., 1315., 1250., 2259.,
          3220., 3476., 6782., 4514., 1851., 1744., 1871., 2461., 2363.,
          3621. ]
      - [ -1955., 246., 1026., 1542., -260., -1368., 182., 944., -1008.,
          -386., 667., 932., 2018., 3121., -282., -3042., 332., 1.,
          -1971., -1685., -1770., -1508., 774., 2087., 481., 196.,
          -2520., -1246., -2516., -1183., -99., 709., 205., -1404., 987.,
          -246., 1565., 210., -117., 779., -1270., 1761., -615., -601.,
          -1246., 808., 473., 783., 430., -2123., 292., 339., -188.,
          -19., -860., -568., 156., -565., -1739., -449., 679., 375.,
          -673., 72., 3271., 2320., 2294., 3962., 3700., 1580., 1862.,
          2452., 4602., 3910., 2085., 1860., 2262., 3641., 5056., 3718.,
          3958., 3689., 2945., 3807., 3716., 3064., 3358., 4765., 4997.,
          3928., 3060., 3496., 3248., 3115., 3327., 4753., 5997., 3780.,
          2223., 2014., 2319., 3194., 5579., 6355., 5886., 4023., 2213.,
          1351., 1702., 2620., 4351., 4437., 6936., 4447., 1994., 2001.,
          2554., 2489., 3760., 6018., 6830., 6619., 3743., 1479., 1933.,
          3861., 5551., 6504. ]
      - [ -580., -148., 399., 1543., 1226., 2946., 9., -435., 100., 787.,
          -137., -1602., -2192., -1802., 185., -58., -148., 579., -613.,
          31., 256., 618., 929., -97., 2153., 516., 475., 1440., 1261.,
          2166., 417., -257., 1229., -358., 458., -336., 907., 25.,
          -1371., 371., -422., -1361., 721., -33., -357., 42., 1270.,
          -413., 271., 468., -1165., 520., 188., -464., -1487., -222.,
          -74., -170., -668., -1371., -263., -403., -1399., 740., 5270.,
          4830., 2853., 2011., 2560., 4434., 5177., 4941., 5482., 4385.,
          1959., 2042., 2174., 1974., 3047., 5124., 5704., 3493., 2927.,
          3003., 2796., 2966., 3287., 5795., 4615., 4338., 3759., 2970.,
          2859., 2766., 2923., 4067., 4841., 4730., 3146., 1436., 1339.,
          1445., 3345., 4043., 7152., 5055., 2671., 2457., 1527., 1260.,
          2058., 4349., 6783., 6154., 3105., 1432., 1388., 1826., 3473.,
          5054., 6648., 6428., 5880., 2653., 1145., 2427., 4407., 3798. ]
      - [ -456., -1253., 695., 3448., 2382., 3667., 617., 898., 1661.,
          2451., 130., -2835., -4764., -3287., 901., 1112., 217., 539.,
          355., 314., 409., 366., 76., 237., -1429., 1107., 303., -126.,
          -2287., -3065., -599., 86., 572., 713., 1779., 2294., 2979.,
          2036., 889., 980., -3782., -3754., -875., -820., -358., -423.,
          384., 808., 3522., 895., 89., -116., 858., 73., 2579., -391.,
          -55., -289., 787., 840., 324., 181., -673., 481., 5382., 4895.,
          3743., 2640., 1720., 2787., 4337., 5416., 3961., 4761., 1546.,
          1559., 2194., 1451., 1401., 2880., 3221., 987., 2555., 4778.,
          4539., 3534., 322., 641., 2565., 1247., 2069., 1824., 2483.,
          1923., 1839., 912., 984., 2147., 2807., 2672., 2619., 1628.,
          949., 920., 2938., 4438., 3427., 1518., 1748., 1715., 1690.,
          3164., 1978., 603., 499., 1532., 1140., 745., 1841., 3281.,
          61., 411., 711., 846., 468., 487., 423., 437. ]
      - [ 1368., -761., 773., 1631., 847., 2181., -742., 860., -329.,
          159., 1580., 459., 183., 1119., 1437., 121., -119., -492.,
          -1552., -369., 482., 1824., -1264., -1535., 1873., 607., 30.,
          -1877., -1595., -1021., 2292., 1236., -3188., -3421., -3569.,
          -586., -1026., -2155., -1407., -239., 1183., 1351., 773., 657.,
          -96., 785., 1447., 1833., 1540., -578., 2325., 1497., 426.,
          503., 786., 3246., 1781., 2097., -521., -601., -1152., 501.,
          -470., 239., 4584., 6203., 3407., 4047., 4527., 5493., 4218.,
          5138., 4999., 2785., 1940., 2083., 1455., 2851., 5259., 3893.,
          4657., 2662., 2742., 6849., 4696., 734., 2854., 4045., 1107.,
          829., 3170., 4215., 5735., 2583., 1582., 5308., 6024., 5481.,
          5985., 4600., 4768., 5169., 5753., 7387., 6715., 6533., 7005.,
          5357., 3576., 5845., 6995., 6049., 4730., 4998., 4021., 3285.,
          4108., 3565., 3182., 3948., 4761., 3743., 2195., 2851., 2744.,
          3479., 2640., 625. ]
      - [ 2732., -105., 701., 805., 138., 275., -2200., -1780., -2144.,
          -1873., -3320., -2127., -3974., 229., -203., -639., 771., 446.,
          3034., 2715., 3541., 393., -901., -1058., 1087., -874., -2728.,
          -2057., -4129., -1986., 1763., 1169., -24., 725., 1088., -269.,
          600., 727., -236., 255., 10., 2041., 83., -1629., -1288.,
          1545., 665., 333., -3672., -4073., -757., 3669., 3348., -765.,
          -1688., 1846., 1177., 1292., 438., -781., -432., 89., 929.,
          48., 3542., 2197., 733., 823., 792., 2429., 4482., 3818.,
          3370., 2729., 4912., 5595., 3938., 2961., 5769., 5557., 1279.,
          2406., 5170., 5147., 4387., 4259., 6713., 5782., 861., 1430.,
          3434., 3941., 3555., 2394., 4611., 5339., -86., 3349., 5690.,
          4017., 4776., 4113., 6040., 6139., 22., 825., 3645., 2835.,
          2812., 3761., 6099., 5731., 2204., 3013., 3523., 2653., 1952.,
          2871., 2590., 2704., 5587., 5280., 5044., 3005., 1540., 3679.,
          3221., 2588. ]
      - [ 709., 1839., -1049., -114., 42., -12., -371., -1034., -1042.,
          -1180., 1678., 4997., 4502., 998., -815., 1400., 757., -788.,
          -4902., -4644., -3200., 1097., -130., -475., 386., -470.,
          3311., 4554., -12., 288., -98., -430., 369., 456., 1601.,
          1472., 1856., -1128., -861., 1150., 334., 1280., -932., -1079.,
          866., -175., 2141., 2064., -587., 270., 2107., -627., -1523.,
          -829., 378., 1342., 1425., -241., 956., 188., 838., 804.,
          -510., 322., 3371., 3737., 5373., 5696., 5624., 4850., 5119.,
          3960., 4600., 4864., 4600., 3189., 4190., 3442., 4563., 4882.,
          5445., 4274., 3222., 4000., 1802., 1699., 4094., 4237., 5086.,
          4274., 4693., 3804., 2212., 1002., 5572., 5416., 4769., 4244.,
          3893., 4166., 4390., 3752., 5365., 4200., 4660., 5148., 3670.,
          3733., 2192., 4203., 4817., 5352., 3937., 3390., 1913., 1759.,
          2385., 4477., 3104., 3498., 2665., 3751., 1560., 1132., 2266.,
          2566., 1510., 1310. ]
      - [ 292., 19., 3180., 5643., 4112., 1495., 1487., -175., -111.,
          2421., -3773., -5531., -5363., -2298., 776., 617., 843., 162.,
          1261., 1101., 2440., 508., 301., 351., 1283., -1667., -943.,
          -2587., -2789., -2493., -1175., 577., -1166., 525., 1644.,
          837., 1036., 1409., -259., -2858., 1578., 1253., -518., -823.,
          -512., -83., -250., 564., -4611., -4171., 707., 3397., 1061.,
          -1125., -42., 436., 2426., 1463., 36., 17., 68., 547., -1701.,
          -1104., 7620., 8055., 6280., 4057., 2764., 2839., 2857., 2667.,
          6961., 5227., 2405., 4049., 3937., 1752., 1490., 2891., 5473.,
          4758., 5661., 6195., 5438., 2662., 897., 2525., 4969., 3597.,
          2631., 3443., 3191., 3197., 2029., 2461., 3308., 5529., 4970.,
          4005., 5314., 4145., 3005., 5052., 2206., 2903., 3448., 3539.,
          3176., 3363., 2542., 3588., 4293., 3203., 3009., 2085., 1439.,
          1657., 2916., 2920., 4922., 3949., 3988., 2289., 2362., 3337.,
          3373., 3932. ]
      - [ 255., 1975., 2765., 1073., 3131., 3334., 1770., 1107., -446.,
          -1543., -2659., -1332., -1460., -1364., -1365., -229., 708.,
          -318., 2694., 3413., 4039., 1965., 62., -642., 116., -1379.,
          -2040., -2535., -3412., -2967., 264., -831., -1263., 1265.,
          1896., 486., 265., 1723., -294., 395., 1257., -73., -311.,
          -131., -640., 898., 1296., 611., -1202., -545., 1691., 3777.,
          2043., 820., 151., -2534., 1871., 72., -295., -217., -458.,
          -2142., -1782., 406., 3861., 4093., 1467., 475., 1669., 5886.,
          4740., 3715., 4258., 2169., 4253., 5510., 5064., 5056., 4871.,
          2189., 1678., 2318., 3974., 4557., 3947., 2289., 5168., 2206.,
          2162., 2739., 2600., 4333., 3410., 3091., 5546., 4641., 4427.,
          3801., 4474., 3114., 1885., 4557., 4706., 3915., 5231., 3003.,
          3063., 2245., 1868., 2492., 4502., 2785., 4686., 3473., 1903.,
          2225., 1761., 1778., 1189., 2606., 4795., 3974., 2451., 987.,
          1138., 2302., 4118., 4214. ]
      - [ 1456., 443., 78., 91., 1021., 43., -398., 992., 1356., 2095.,
          -209., 4224., 1843., -183., 483., 326., -4313., -659., -4720.,
          -1648., -1906., -3014., -241., -194., -1583., -375., 2844.,
          1284., 1722., -450., 355., 101., -914., -1217., -262., 3529.,
          1926., 990., -1587., -1805., 228., 95., -1052., 282., -1178.,
          314., -227., 530., 443., 600., 1179., 5193., 3216., -841.,
          1238., 369., 853., -670., -264., -1508., -674., -32., 206.,
          1224., 5102., 3963., 6116., 6655., 5859., 3277., 1612., 802.,
          4200., 3753., 2859., 3224., 1891., 1419., 487., 620., 2341.,
          1253., 4300., 6738., 6524., 3002., 481., 346., 4869., 3677.,
          5028., 5130., 4092., 2874., 557., 101., 3110., 5637., 5390.,
          5603., 6202., 5498., 2297., 1873., 6426., 5315., 4642., 5438.,
          5232., 4772., 6703., 6556., 6621., 6612., 4525., 3493., 2620.,
          4719., 6804., 6941., 4645., 4970., 5118., 3880., 3984., 4778.,
          3926., 5094. ]
      - [ 698., 572., 245., 1188., 2181., -248., -579., 300., 152.,
          1720., 2197., -632., -2329., 2256., 535., -958., -423., -928.,
          -2416., 31., 184., -334., 1364., 941., -105., -6., 2539.,
          3925., 2796., 1904., -500., 950., 354., -421., -2500., -3020.,
          -273., -67., -213., 133., 192., -1014., 2114., -144., -1015.,
          864., 1087., 130., -80., 387., -757., 334., -1657., 466.,
          -665., -1818., 294., -2268., -2679., -1614., -923., -1439.,
          144., 1472., 6382., 6726., 7151., 5036., 5645., 6626., 5763.,
          7046., 6430., 4214., 1737., 1398., 2045., 2988., 5333., 5424.,
          5459., 5056., 5168., 6855., 6914., 4642., 1126., 3297., 5641.,
          6552., 4933., 4849., 3852., 2718., 4118., 1918., 6334., 6375.,
          3972., 4768., 6089., 5301., 5211., 347., 5542., 5210., 4954.,
          3486., 3163., 3818., 2149., 240., 5414., 5807., 4191., 3934.,
          3479., 2354., 4127., 6280., 2992., 4226., 4317., 2954., 1381.,
          1703., 4806., 5962. ]
      - [ -28., 237., 2324., 2339., 2413., 2369., 349., 34., 60., 1175.,
          -1444., -2053., -2109., -1802., 792., 511., 779., -42., 542.,
          188., 145., 268., -417., 215., -181., -118., 108., -468.,
          -361., 96., 130., -37., 150., 8., -45., 1329., 1180., -359.,
          -77., 1., -431., 716., 959., 520., 698., 1209., 612., -447.,
          25., -324., 86., -1459., -821., 823., -808., 278., 1096., 814.,
          -1049., -196., -238., -716., 828., 233., 6494., 5893., 4908.,
          4209., 4113., 4747., 5473., 5896., 6516., 4695., 3582., 3907.,
          3853., 3246., 3182., 5021., 5397., 4060., 4706., 5172., 5151.,
          4726., 3667., 4095., 4257., 3686., 3418., 4374., 4179., 3192.,
          3430., 3999., 5010., 4870., 4869., 4179., 4276., 4853., 4557.,
          4345., 5109., 4134., 3839., 3734., 3714., 4247., 3896., 5087.,
          6179., 4064., 3734., 3921., 3679., 3155., 4254., 5682., 5168.,
          3088., 2307., 1818., 1912., 2280., 3656., 5199. ]
      - [ 229., 1304., 2417., 1626., 1614., 2420., 792., 75., 965.,
          -488., -1902., -1592., -1570., -1683., 832., 102., 186., -109.,
          646., 345., 372., 1035., 54., 827., -158., 210., 70., -408.,
          -518., 162., 90., -385., 71., -252., -284., 1311., 1376., 3.,
          -71., 179., -279., 644., 1306., 468., 417., 1085., 765., -338.,
          60., -404., 485., -749., -1419., -188., 204., -415., 260.,
          818., -594., 1026., 1079., 19., 174., 1434., 6019., 5490.,
          4021., 3436., 3514., 4300., 5746., 6135., 4501., 2890., 3672.,
          4238., 4272., 3861., 4436., 5948., 4924., 4175., 4696., 5101.,
          5096., 4577., 4064., 4799., 5002., 3368., 3270., 4250., 4404.,
          3580., 3696., 5819., 5519., 4718., 4788., 4149., 4182., 4785.,
          4955., 5981., 4443., 4092., 4260., 3724., 3765., 3931., 4123.,
          5116., 5644., 3690., 3289., 3677., 3909., 3946., 3508., 5575.,
          5392., 4352., 2282., 2140., 2071., 2207., 3158., 4702. ]
      - [ -812., -14., -90., -73., -189., -2228., 438., -252., 138.,
          125., -51., -290., -149., -89., -345., -1193., 172., 2214.,
          1256., 1711., 2073., 3188., 1735., 877., -318., -2216., -1000.,
          -2413., -1866., -724., -812., 1053., 224., 200., 583., 1053.,
          597., 414., -784., 1970., 351., 1415., -21., -1062., -548.,
          -662., 1778., -148., 270., 221., -1766., -1699., -919., -1591.,
          -871., -1129., 136., 189., 9., -723., -2474., -1494., 934.,
          535., 4012., 5128., 5328., 5321., 5153., 4328., 3328., 4446.,
          3758., 4865., 5153., 5436., 5159., 4875., 5289., 4823., 4548.,
          3480., 2224., 2287., 3247., 2370., 4243., 4851., 4424., 3130.,
          1662., 2435., 3244., 916., 2958., 4715., 4664., 5522., 4873.,
          4613., 5275., 4278., 3454., 1592., 3903., 3331., 3045., 3516.,
          1906., 1420., 1798., 762., 3306., 3305., 3296., 3259., 2657.,
          2285., 2351., 2391., 2732., 2445., 3405., 4387., 3504., 3050.,
          1610., 1043. ]
      - [ 316., 187., 82., 243., 360., -451., 279., 340., -1139., 289.,
          1473., 296., -214., -159., -496., -2340., 49., -249., -372.,
          -13., 1647., 1088., -53., 198., -76., -2293., -3467., -834.,
          -2169., -1919., -1326., -497., 1022., 2240., 1331., 2251.,
          2366., 1822., -236., -1159., 187., -643., 1770., -111., -73.,
          526., 558., 919., 165., 562., -589., 1409., 188., 335., -1319.,
          1312., -384., 743., 825., -1043., -582., 607., 667., 525.,
          2824., 5081., 5262., 5287., 5152., 4193., 3599., 5288., 3503.,
          4693., 4689., 5200., 5154., 4411., 4360., 4818., 3831., 2049.,
          1372., 2439., 2143., 1342., 2655., 4218., 4764., 4231., 3491.,
          4886., 3671., 1767., 3706., 4983., 4234., 4028., 3441., 4151.,
          3568., 3624., 4328., 5053., 3109., 2295., 2610., 2109., 1465.,
          1422., 3170., 3305., 3083., 3072., 3665., 3179., 2326., 1927.,
          3041., 4280., 3038., 2075., 3435., 3647., 2848., 2489., 3281.,
          2175. ]
      - [ -487., -1366., -131., 12., 111., -408., -2009., -65., 104.,
          -32., 502., 171., 630., 359., 178., -11., -57., 619., -86.,
          -13., 383., -890., 1221., -94., -625., -920., -2046., -541.,
          -1736., -2061., -1938., -522., 277., -59., 817., 2885., 1988.,
          288., 752., -1., 320., 712., 72., -209., 540., 565., 429.,
          -687., -330., 292., -1026., -894., -1162., -521., 226., -433.,
          -661., 435., 385., -1448., -1169., -234., 199., -586., 2009.,
          3742., 5051., 5242., 5365., 4776., 2047., 213., 2392., 4652.,
          4956., 5329., 5254., 4773., 2880., 493., 1773., 2405., 1674.,
          3001., 1881., 1620., 2227., 972., 1899., 2294., 2538., 4579.,
          3672., 2149., 3004., 2024., 3139., 5067., 4261., 2579., 3434.,
          4994., 4474., 2959., 3180., 4054., 4162., 3181., 3800., 4347.,
          3053., 2855., 3268., 3266., 2850., 2354., 2222., 2983., 2538.,
          2547., 3993., 2537., 3375., 3576., 3523., 2940., 2643., 4818. ]
      - [ 214., 504., 2025., 2805., 2981., 2213., 624., 294., 670., 808.,
          -1868., -2576., -2485., -1403., 1033., -106., 444., -532.,
          -51., -217., -172., -68., -496., 956., -109., 106., -53., 197.,
          -33., 241., 45., -61., -86., -810., -480., 437., 580., 86.,
          -410., -67., -286., 798., 1547., -123., -412., 803., 556., 23.,
          54., -94., 68., -44., 62., -130., 553., -261., 264., 771.,
          311., 2675., 2958., 1300., -198., 1540., 5716., 5842., 4989.,
          4431., 4407., 5191., 5856., 5886., 5004., 3198., 3182., 3666.,
          3731., 3313., 4113., 5810., 4274., 4038., 5169., 5557., 5572.,
          5194., 4004., 4642., 5189., 3606., 3543., 4569., 4615., 3655.,
          3793., 4803., 5256., 4780., 4800., 4745., 4884., 4946., 5150.,
          5587., 4352., 4174., 3899., 3503., 3820., 4097., 3972., 4677.,
          4942., 3784., 3596., 4020., 4398., 4654., 3779., 4973., 4640.,
          3887., 2455., 2889., 2944., 2750., 2766., 4076. ]
      - [ 2203., 1637., 2320., 1007., 1795., 876., 520., 850., 820.,
          114., 163., 36., 476., 513., 1189., -362., 360., -116., -1612.,
          -1894., -2023., -2008., -1513., 1952., -543., -110., -445.,
          282., 286., 106., 382., 996., -407., -1096., -70., 33., -211.,
          -1150., -1102., -1243., 819., 230., 553., 539., 361., 802.,
          1451., 1456., -2247., -1376., 136., 174., 381., 730., -167.,
          -40., 584., 101., -481., -698., -589., -629., -956., 831.,
          3529., 2687., 2534., 1825., 2721., 3390., 4634., 4536., 2534.,
          1174., 1145., 1116., 1146., 1237., 2271., 5144., 1706., 1210.,
          2732., 3616., 3529., 3566., 3851., 4236., 2303., 1416., 3245.,
          4024., 4022., 4124., 3884., 3342., 3263., 3038., 3902., 2581.,
          1607., 2588., 2612., 2055., 2955., 3134., 3729., 3997., 3661.,
          3794., 3819., 3052., 2399., 3454., 3112., 2880., 2711., 2630.,
          2205., 1680., 4282., 4209., 3517., 3458., 4433., 4569., 4050.,
          3913. ]
      - [ 973., 3807., 2842., 1014., 686., 1332., 388., -161., 1808.,
          -430., -117., -571., -19., 12., -51., 1319., 31., -85., -91.,
          279., 283., -6., 283., 479., 1226., 2229., 1539., 2624., 1834.,
          24., -835., -836., -743., -2317., -1180., -2252., -2348.,
          -826., -60., -958., 719., 525., 1363., 229., 1201., 738., 122.,
          1622., 547., -21., -723., -484., 326., 394., -241., -90., 12.,
          446., -928., -498., -439., -685., -365., -981., 5159., 3649.,
          2786., 1632., 1494., 1750., 3234., 5315., 3000., 1538., 1321.,
          1359., 1203., 962., 943., 3493., 5277., 4417., 4511., 4671.,
          4305., 2776., 1133., 2635., 4102., 3375., 3717., 3144., 3050.,
          2946., 1543., 2486., 4563., 3151., 3502., 2978., 3174., 3434.,
          2984., 3394., 3629., 3247., 2851., 2889., 3029., 2632., 2652.,
          4422., 3195., 2873., 2451., 2448., 2132., 1682., 2171., 2896.,
          1924., 2736., 2714., 1692., 1413., 2399., 3323., 2379. ]
      - [ -1045., 1935., 2590., 1558., 958., 942., 898., 207., -2073.,
          554., 78., 28., -382., -329., -909., -885., -513., 67., 70.,
          -47., 852., 411., 863., -71., 2044., -201., -1257., -750., 3.,
          1902., 942., 319., -42., -740., -250., -47., 435., -1119.,
          537., 190., 878., -296., -187., 292., 167., 433., -67., -756.,
          883., 373., -32., -354., 404., -424., -1389., -287., 1186.,
          294., -222., 377., 157., 1369., 3388., 1661., 3245., 3305.,
          2756., 2358., 1872., 3092., 2566., 1783., 3501., 1452., 998.,
          1042., 1372., 1591., 1803., 3439., 3037., 833., 864., 1295.,
          3448., 4327., 5005., 5303., 2778., 999., 1417., 2118., 3431.,
          2686., 3330., 4267., 3926., 2618., 3464., 3521., 3583., 3623.,
          4031., 5738., 5676., 4684., 2991., 2674., 2563., 2561., 3689.,
          4326., 3571., 4041., 3108., 2282., 1822., 2360., 4217., 5769.,
          2052., 3632., 3316., 2299., 1895., 2183., 3656., 4663. ]
      - [ 846., -1466., -3413., -244., 604., 890., -136., -453., -255.,
          444., -1441., -360., -1152., -646., -371., 728., -989., -1524.,
          236., -757., -8., 67., 1952., 217., -119., 2704., -714.,
          -1115., 1348., -1397., -1790., -111., 367., -153., 37., 853.,
          51., -682., -942., -1249., 136., -1255., -1323., -2262.,
          -1594., -1866., -2107., -583., 953., 1552., 494., 583., 427.,
          -630., -589., -514., -1531., 115., 1120., 1219., -257., 1141.,
          626., 362., 6132., 5004., 3891., 2858., 2906., 5214., 5346.,
          6155., 3547., 2654., 4667., 5884., 4970., 5852., 5329., 4888.,
          5097., 4672., 5182., 5077., 4940., 5089., 5948., 5729., 5727.,
          2646., 1842., 2203., 2294., 5117., 5276., 6105., 4611., 1655.,
          4251., 4863., 4849., 4810., 4740., 5105., 4082., 3901., 4265.,
          3940., 3780., 2830., 5081., 5615., 2191., 3238., 3960., 3623.,
          3265., 4498., 4931., 5098., 2665., 1593., 2434., 3079., 3507.,
          4737., 4362., 4152. ]
      - [ -61., 1795., 1594., -92., 754., -1137., -758., 1154., 284.,
          1227., 170., 143., 345., 540., 2365., 1253., 958., 118., 110.,
          70., -235., -1085., -2242., -651., 17., 24., -878., -690.,
          -702., -649., 1612., 473., -1186., -571., -90., -257., -91.,
          37., -1205., -1583., -71., -805., -103., 135., 463., 490.,
          554., -795., 244., 295., -95., -683., -1250., -2464., -2772.,
          -2174., 2013., -496., 272., 904., 547., 1916., 3745., 1652.,
          5385., 4733., 2828., 1470., 2038., 2545., 2026., 2932., 5278.,
          2109., 1098., 1103., 1123., 1320., 3039., 3235., 3854., 970.,
          940., 1032., 1169., 2307., 2888., 2029., 3671., 846., 1230.,
          1256., 1822., 3237., 2892., 1643., 3250., 1469., 2992., 2985.,
          3161., 3547., 3509., 2355., 4347., 3447., 3305., 2571., 2705.,
          2590., 2334., 1031., 5344., 3771., 3233., 2685., 2802., 2950.,
          3828., 4792., 2949., 3754., 3112., 2054., 1583., 2396., 3339.,
          4510. ]
      - [ 578., 3051., 1585., 433., 123., 311., -725., -1767., 571.,
          -1897., -2138., -1928., -2865., -1522., 653., 1516., 224., -6.,
          -3., 101., 101., 470., 125., 520., 48., -177., -38., -50.,
          352., 335., -314., 842., 487., -1740., 264., -411., -1903.,
          -158., -590., -309., -206., 25., -709., 124., 792., 459., 27.,
          -1365., -421., -492., -403., -18., 439., 262., -1003., -386.,
          2434., -937., 1270., 1789., 759., -606., -155., 57., 6222.,
          3915., 2041., 1309., 1459., 1587., 2045., 5103., 5013., 2897.,
          3752., 3898., 3167., 1834., 1567., 5274., 4356., 4664., 4897.,
          4903., 4459., 2860., 1341., 3314., 4308., 2455., 2914., 2282.,
          2296., 2895., 1426., 2920., 5151., 3956., 4116., 4047., 4061.,
          3936., 2770., 4003., 5062., 3819., 2785., 3150., 3546., 2947.,
          3181., 3995., 5995., 4038., 3111., 3144., 2697., 2256., 3503.,
          4826., 4876., 4707., 2614., 2227., 1777., 2202., 4807., 5719. ]
      - [ -1478., 1668., 116., 680., -554., -394., -1009., 1289., -51.,
          421., 2320., 1965., 2526., 2895., 2917., 2571., 1065., -1458.,
          -5255., -5708., -5824., -4371., -39., -2238., -597., 1267.,
          3505., 1639., 3099., 2755., 527., 953., -1142., -3017., -2779.,
          -178., -421., -2999., -2337., -1871., 977., 759., 412., -912.,
          -388., -125., 675., 317., -1705., -1265., 876., 4432., 4594.,
          4151., -742., -246., 2297., 1464., -270., -106., -2087.,
          -1534., 51., -209., 1248., 1710., 3414., 4868., 5256., 4840.,
          5271., 4821., 4273., 3513., 2632., 3979., 3524., 3435., 3699.,
          5135., 1545., 1700., 3123., 3728., 3728., 2943., 1723., 2920.,
          1371., 4693., 4961., 6043., 5637., 5077., 3883., 2239., 3370.,
          5003., 4679., 5172., 5231., 5141., 5533., 4163., 1743., 3903.,
          4920., 4762., 5150., 5083., 4075., 3993., 2091., 2855., 2890.,
          3168., 2950., 2247., 2450., 4164., 1555., 3238., 3856., 2988.,
          2311., 3388., 4967., 5003. ]
      - [ -762., -611., -221., -593., -248., -476., 1161., 452., -1278.,
          201., 1933., 3237., 2970., 556., -587., 299., 797., 437.,
          -1562., -2701., -2653., -1279., 1177., 32., 22., -42., 159.,
          385., 931., -97., 344., -821., -1274., -634., -934., -1765.,
          -1924., -1565., -1043., 507., 909., 1171., 1074., 393., 471.,
          852., -406., -1359., 274., 275., 19., -435., 408., 374., -99.,
          1386., 1064., 841., 964., -769., -889., -539., 263., 1536.,
          5150., 5847., 6205., 5479., 5630., 5242., 5435., 5486., 5578.,
          5063., 4697., 3853., 3086., 3808., 5289., 4469., 5387., 3679.,
          2016., 2473., 2487., 1683., 2821., 4464., 5140., 5016., 4579.,
          4759., 4307., 2959., 1278., 3847., 5348., 4298., 2844., 3529.,
          2810., 3569., 3243., 3271., 4843., 4135., 3002., 3151., 2901.,
          2750., 3978., 5135., 3502., 3661., 3097., 3333., 2946., 1934.,
          2639., 3764., 2462., 2437., 2902., 2641., 1915., 2599., 3351.,
          2432. ]
      - [ -425., 2392., -618., -175., 670., 662., 179., 579., 364.,
          -220., 1664., 2116., 2252., 448., -1566., 1033., 2473., -565.,
          -2261., -2333., -1910., -308., 178., -1068., -814., -1681.,
          -1443., -1335., -1643., -675., -2036., -1065., 265., -184.,
          -586., -23., 395., -200., 40., -161., 1192., -234., 1395.,
          481., 831., 453., 70., 2793., -1., -43., -106., -171., -124.,
          -76., 164., -346., 58., 20., 21., 64., 50., 169., 197., 211.,
          3817., 4520., 3878., 3311., 4130., 4096., 4471., 4615., 4552.,
          3204., 2482., 2252., 2268., 2284., 3162., 2081., 4217., 3379.,
          3441., 3727., 3630., 2248., 4076., 4770., 5332., 4243., 3365.,
          3671., 3107., 3591., 4816., 5371., 6255., 5826., 3426., 2279.,
          2331., 4368., 5918., 5803., 2340., 2072., 2339., 2053., 2193.,
          2575., 2742., 2769., 2287., 2237., 2166., 2181., 2232., 2310.,
          2402., 1978., 2154., 2230., 2105., 2144., 2250., 2185., 2079.,
          1785. ]
      - [ 997., 256., -2066., 196., 1188., 194., 884., -286., 863.,
          -595., 1305., 2503., 1016., -321., -574., -158., 245., 872.,
          1382., -3016., -3224., -2556., -429., 586., -442., -1983.,
          -656., 2278., 2236., 978., 136., 1024., 1527., 697., -2184.,
          -1397., -509., -1318., -1161., -805., -3567., -903., 1402.,
          -292., -951., -239., 79., -1127., 590., 500., -867., 926.,
          2580., -384., -1548., -273., 20., -434., 3160., 1047., -507.,
          410., 3719., 1465., 3267., 3736., 4276., 3286., 2766., 1926.,
          3322., 2794., 1377., 3461., 4891., 3911., 2426., 3073., 5438.,
          5360., 2809., 1602., 2268., 3492., 4594., 2714., 2843., 4686.,
          5054., 3065., 1880., 4532., 4944., 3392., 2462., 3240., 3407.,
          3783., 4250., 4579., 4493., 4214., 3067., 2797., 4387., 4275.,
          4374., 3304., 3737., 3543., 4829., 4813., 6226., 5216., 4695.,
          4104., 3256., 3440., 5050., 6001., 5792., 6314., 4534., 2971.,
          3117., 3780., 4145., 5593. ]
      - [ -2422., -571., -538., 1235., -218., 667., 1098., 1440., 931.,
          1047., 2488., 311., 873., 2952., 958., 1276., 871., 792., 91.,
          -172., -1043., -1925., 482., 1644., 652., 943., -664., -314.,
          -839., 1832., 1791., 370., 1222., -865., -479., -464., 341.,
          -1874., -762., 887., -489., -1567., -534., 131., 244., 259.,
          297., 186., 2032., 1973., 24., -405., 490., 288., 248., 1386.,
          335., 1169., -150., 731., 1108., 1968., 788., 380., 2390.,
          3187., 5244., 4465., 4220., 4951., 4792., 5192., 4001., 4971.,
          2430., 1287., 1465., 3174., 4380., 5064., 3455., 2792., 1079.,
          1292., 2847., 3913., 3748., 5400., 3598., 2579., 1052., 1586.,
          3821., 3696., 4291., 4974., 2074., 4087., 2405., 3694., 4321.,
          3794., 4458., 5557., 3029., 3587., 3382., 3215., 3494., 3337.,
          3957., 5630., 3620., 4485., 4096., 3005., 2456., 2808., 4256.,
          4906., 1887., 3775., 4138., 2939., 2762., 3974., 3736., 3252. ]
      - [ 816., 2774., 2310., 3385., 3162., 2114., 632., 1969., 1450.,
          15., -76., -625., -2257., -2789., -867., -44., 77., -134.,
          -324., -816., -139., 2271., 2383., 827., 83., -301., -519.,
          -352., 599., -1119., 408., 695., -647., -1499., -265., 449.,
          560., 439., 605., -406., -688., -243., -51., -824., -371.,
          -1321., -1162., 386., 2386., 158., -221., 747., 573., 2108.,
          1986., 1848., -283., -359., 1442., 676., -578., -352., -607.,
          17., 5156., 3854., 3016., 2745., 3300., 4466., 5022., 5075.,
          2984., 1337., 1472., 2193., 3953., 3849., 4179., 5284., 1549.,
          1312., 1608., 2956., 4577., 3907., 4039., 6557., 1175., 2805.,
          4157., 4392., 4697., 4307., 4674., 5947., 1513., 3465., 3767.,
          3595., 3694., 3455., 2999., 4958., 5782., 5883., 4083., 3478.,
          2547., 2823., 3958., 6044., 3160., 4444., 4199., 3637., 2487.,
          3374., 2930., 3910., 2435., 2583., 2754., 2244., 1822., 2180.,
          2495., 1785. ]
      - [ -322., 270., 837., 1587., 423., 355., 1582., 977., 1459., 681.,
          -3655., -4157., -2360., 2339., 615., -600., -130., 66., 1500.,
          2539., 871., 316., 477., 771., 182., 208., 2212., -443.,
          -1744., -415., -487., -483., -593., -13., 144., -870., 774.,
          273., -537., 233., -489., -120., 1910., 2067., -1202., -1010.,
          -839., -823., 1105., 164., -740., -1246., 33., 2104., 1955.,
          1145., 52., 1044., 1590., 1699., -629., -555., 1706., 483.,
          4928., 5308., 5511., 4639., 4919., 5619., 5338., 5585., 1999.,
          3013., 3701., 3995., 2840., 2931., 4613., 5412., 1568., 2808.,
          5276., 5561., 5221., 2926., 2425., 4883., 2316., 4522., 4848.,
          5191., 4866., 3351., 3563., 5211., 1689., 3287., 4922., 4582.,
          3732., 3547., 4311., 5563., 3579., 3722., 3114., 2483., 2818.,
          5400., 5675., 5763., 3223., 3248., 3610., 4064., 4837., 4422.,
          4393., 3941., 2816., 2694., 2976., 3103., 2897., 2501., 2592.,
          3887. ]
      - [ -286., 1130., 3941., 2665., 3724., 3462., 601., 68., 744.,
          799., -1305., -2164., -2741., -1439., 2238., 111., 174., -908.,
          24., -137., -68., -21., -480., 853., -269., 804., 1708., 1584.,
          1028., 1215., 895., -430., -66., -912., -1798., -422., -141.,
          -1128., -910., 45., -96., 70., 694., -171., -218., 1067., 720.,
          -179., 111., -531., 266., -633., -64., -352., -548., 74., 394.,
          1454., -427., 1192., 1073., 584., 975., 1278., 6958., 6370.,
          4549., 3371., 4034., 4972., 6499., 7026., 6308., 2599., 2253.,
          2734., 2909., 2579., 3600., 6853., 4088., 3260., 4948., 5463.,
          5410., 4695., 3048., 4727., 4069., 3348., 3072., 3648., 3722.,
          2599., 2767., 3618., 5230., 4178., 4246., 4738., 4531., 3922.,
          3920., 4785., 6190., 4458., 4656., 3827., 2952., 3655., 3724.,
          5517., 6213., 4481., 2882., 2925., 2948., 2688., 3558., 6004.,
          5702., 3356., 2125., 1926., 1713., 1636., 2417., 4718. ]
      - [ 469., -3083., -914., -158., -107., -1232., -2230., -465., 765.,
          103., 267., 203., 1163., 289., -209., 1796., -892., 1723.,
          1417., -162., -720., 334., 498., -940., -498., -1842., -3509.,
          -595., -277., -2501., -1162., -1456., 1469., 822., 558., -540.,
          -1519., -113., 644., -381., 446., 57., 887., 1463., -109.,
          143., 517., 1051., 527., -840., 878., -546., -2686., -703.,
          586., -109., 980., 73., -530., 2924., 2207., 1617., -190.,
          -858., 2831., 3297., 5992., 6474., 6441., 5314., 2396., 1501.,
          4603., 5697., 6295., 6497., 6017., 5633., 3269., 2340., 4910.,
          4623., 2733., 3796., 2762., 1718., 3150., 2196., 4980., 4350.,
          3989., 5743., 5893., 5283., 5510., 4246., 4595., 5558., 6188.,
          4456., 3771., 5725., 5058., 4199., 5544., 4597., 4879., 4319.,
          3937., 3983., 4209., 3923., 5071., 4650., 3822., 4334., 4326.,
          4399., 3078., 1659., 4548., 3285., 2994., 2228., 1641., 1129.,
          1476., 1712. ]
      - [ -335., 251., 536., 2196., 1325., 1830., 1676., 198., 519.,
          -401., -985., -3504., -1217., -1262., -1463., -1143., 587.,
          229., -777., -1293., -1676., 2186., 1816., 267., -615., 151.,
          114., 2109., 839., -372., -1225., 1492., 1043., 1721., 3232.,
          1049., 1098., 3166., 1531., 643., 595., 2278., -346., -374.,
          -428., 169., -146., 957., -467., -609., 12., 176., 381., 310.,
          210., 1016., 393., 186., -2., 288., 105., 311., 64., -22.,
          5337., 5737., 3258., 2020., 3535., 3108., 3448., 5552., 5169.,
          5083., 5075., 4372., 4159., 2708., 3397., 4957., 5509., 5447.,
          5865., 3621., 3154., 2608., 3646., 5157., 5003., 5615., 4392.,
          3199., 2785., 560., 2739., 4898., 4201., 4393., 4564., 3275.,
          2958., 3418., 4625., 2315., 2623., 1892., 1998., 2502., 2312.,
          2791., 1606., 1887., 2077., 1149., 1932., 2430., 2307., 2404.,
          1166., 1564., 4333., 1460., 1500., 2100., 1851., 2023., 850.,
          378. ]
      - [ 10., 551., 1722., 2456., 2534., 879., 542., 565., 1276., 2712.,
          817., 372., 1639., 896., 1970., -250., -180., -1844., -543.,
          -1497., -731., -1250., -624., 484., -460., 1665., 2825., 1054.,
          1735., 656., -509., -39., -557., -1674., -1632., -1091.,
          -1316., -1063., -476., -460., -95., 33., 691., -349., -386.,
          397., -264., 77., 24., 168., 226., -258., -26., 29., 61., 174.,
          1134., 397., -38., -346., -327., 523., 2483., -332., 7508.,
          7191., 6808., 6130., 6060., 7043., 7524., 7553., 6378., 3818.,
          3141., 2718., 2941., 3944., 5736., 7222., 5628., 5024., 5321.,
          5075., 5315., 5206., 3218., 6524., 7170., 5175., 4399., 4794.,
          4193., 3920., 3023., 5817., 6473., 5580., 4604., 5763., 4842.,
          5145., 5714., 6320., 7027., 6193., 4753., 5171., 5124., 4743.,
          6370., 7301., 7240., 6148., 5278., 5246., 5142., 5475., 6659.,
          6986., 6200., 6045., 4622., 4514., 4677., 4807., 5051., 5786. ]
      - [ 431., 2503., 3343., 1659., 2477., -1135., -196., -80., 360.,
          519., 132., -2548., -645., 943., -382., 106., 206., -775.,
          -849., 65., 1095., -665., 483., -23., -964., -1150., 549.,
          -2139., -3934., -701., 185., 1033., 238., -1075., 1322., 1508.,
          1695., 816., 915., -418., 139., 548., -1054., -278., 294.,
          1312., -795., -875., 517., -536., -1789., -280., -313., -117.,
          -221., -662., 522., 2347., -50., -3352., -1448., -2471., -144.,
          -123., 6191., 4109., 2061., 1487., 3737., 3431., 4268., 3970.,
          4606., 633., 94., 1158., 2131., 3713., 3948., 6038., 4156.,
          1891., 3825., 4649., 2709., 1897., 6373., 5981., 5658., 3592.,
          1693., 2165., 4192., 5311., 5703., 5875., 5418., 3821., 3848.,
          3744., 3011., 4362., 4637., 4994., 4791., 5232., 4560., 2338.,
          3734., 3844., 5003., 5863., 5241., 6228., 3675., 1804., 837.,
          3055., 5447., 6694., 2082., 4225., 4878., 4516., 1836., 4047.,
          7368., 7211. ]
      - [ -225., 2357., 1813., 1381., 2094., 717., 361., 455., 1090.,
          163., 180., -508., -1068., -127., -1139., 434., -129., -1452.,
          -886., 58., -112., -45., 329., 356., -102., 717., 3558., 2084.,
          872., -953., 1620., 2980., -127., -430., -2847., 275., 1507.,
          807., -1017., -1229., -146., -1307., 301., -500., -426., -311.,
          -11., 118., 373., 561., 51., 1386., 1118., 1480., -469., 179.,
          -696., 280., -2080., -230., -481., -638., -15., -1542., 4891.,
          2209., 1641., 1227., 1646., 4541., 5415., 4401., 3494., 425.,
          186., 330., 676., 2813., 5925., 5976., 2361., 1992., 4242.,
          4880., 5052., 3087., 5447., 5018., 3504., 2285., 2492., 3418.,
          1978., 713., 2072., 4110., 5127., 3966., 3891., 4849., 5019.,
          4599., 3281., 1511., 5346., 4869., 3081., 2208., 2794., 2897.,
          4227., 2134., 4947., 4883., 3883., 2326., 2730., 2520., 4109.,
          1857., 6538., 5108., 2766., 1982., 1041., 2808., 4983., 6952. ]
      - [ 2118., 583., 3552., 2858., 1168., -1610., -501., -1735., 3158.,
          1546., 93., 341., 372., 3015., -260., 183., -391., -361.,
          -2633., -3300., -3938., -2987., 942., 319., -1224., 787.,
          1293., 2467., 3593., 2424., -1205., 1282., -866., -1089.,
          -3162., -3605., 272., -147., 1258., 201., 891., -1963., -563.,
          1954., -1226., -642., 747., -308., -1995., -1071., 2582., 619.,
          3257., 2605., -1334., -4666., 1531., -286., -2015., -1797.,
          351., 389., -1243., -95., 3960., 4861., 3854., 4944., 5616.,
          6580., 6209., 6709., 4366., 1452., 619., 507., 546., 3967.,
          6330., 5875., 2575., 721., 1309., 2092., 3234., 2129., 4430.,
          6587., 2462., 2369., 4139., 4151., 4415., 3158., 2209., 3016.,
          3556., 3669., 3490., 3623., 5270., 5635., 3954., 687., 3859.,
          4911., 4597., 4058., 3360., 3564., 1791., 578., 5201., 5879.,
          3922., 2987., 2923., 2795., 3572., 4808., 6501., 6868., 6349.,
          3521., 1625., 1919., 4765., 8041. ]
      - [ -80., 695., 2765., 5339., 776., 1481., 232., -428., 1126.,
          2781., 1023., 1., 0., 0., 129., -884., 797., 494., 0., -822.,
          -1934., -988., -423., 1287., 996., -13., 0., 63., 143., 587.,
          1543., 562., -762., -1236., -360., -222., -45., -794., -1777.,
          -304., 260., 1318., -371., 323., 1262., 1378., 1382., 856.,
          1032., 143., -85., 129., -189., -582., -1074., -1513., -967.,
          -1758., -1701., 310., 587., 256., 74., 1109., 6756., 6569.,
          6059., 2525., 488., 859., 1410., 1560., 6918., 4187., 1009.,
          1., 0., 0., 253., 3664., 4299., 2678., 0., 402., 958., 730.,
          1047., 1519., 2816., 1535., 0., 1069., 1613., 1155., 951.,
          684., 4490., 1252., 304., 1080., 257., 1324., 1857., 984.,
          4038., 1912., 945., 1807., 1590., 1214., 738., 654., 1726.,
          235., 1085., 1113., 523., 402., 772., 3255., 2583., 3826.,
          2271., 736., 479., 524., 1360., 1987. ]
      - [ 830., 3474., 4002., 2084., 3153., 4882., 1027., -41., 1419.,
          294., 332., 212., 154., 310., 2203., 1279., -642., -1220.,
          -2659., -2376., -961., -328., -1127., -23., -172., -387.,
          2542., 3535., 2648., 4376., 1286., -795., 480., -979., -2555.,
          -3595., -1214., -3775., -1288., -1057., 1934., 1658., 1056.,
          1638., 1109., 1416., 1409., 1075., -2084., -5235., 291.,
          -1226., -571., 77., -1858., -1722., 263., -244., -957., 729.,
          1375., 429., 833., -1100., 6460., 4916., 2354., 1508., 2211.,
          4380., 6489., 7223., 2643., 520., 158., 178., 170., 338.,
          3851., 7095., 2072., 1808., 3139., 2798., 3121., 3984., 2681.,
          6185., 2852., 2307., 3452., 2771., 2766., 2410., 1388., 2393.,
          3006., 3829., 3171., 2145., 3636., 2791., 3812., 4541., 4766.,
          3794., 3814., 3334., 2189., 2288., 3283., 4547., 4858., 3475.,
          3081., 2532., 1443., 1747., 4320., 5472., 6531., 6464., 3509.,
          1277., 1035., 1389., 3279., 3736. ]
      - [ -82., -320., 2819., 973., 823., 4353., 283., -774., 1846.,
          1579., 1219., -472., -73., 689., 156., 368., -48., 599., -417.,
          297., -323., -2077., 870., 190., 1167., -320., 515., 4552.,
          5178., 2066., 587., 1410., -2677., 1519., -1247., -2304.,
          -3005., -2717., -644., 1741., -532., -1974., -174., 1425.,
          2295., 953., -1964., -239., 16., -1997., -630., 652., -92.,
          -65., 2653., -739., -836., -397., 1347., -6., -121., -1905.,
          -1047., -208., 8112., 8032., 5769., 1401., 1619., 5141., 7967.,
          7562., 6788., 6303., 2337., 566., 977., 1081., 7390., 7458.,
          6030., 4673., 3425., 6197., 6877., 2749., 5710., 7420., 4303.,
          3090., 597., 3766., 5224., 1116., 4229., 5334., 3153., 2209.,
          2989., 4510., 4455., 1979., 4004., 2321., 4260., 3784., 3774.,
          1823., 2467., 5505., 3602., 1479., 4638., 3719., 3616., 2442.,
          1106., 2263., 1631., 967., 4728., 4369., 2905., 1418., 1249.,
          4779., 3561., 1964. ]
      - [ -1791., 71., 3487., 2747., 3345., 1682., -134., -216., -603.,
          1011., 265., 57., -891., 1046., -499., -575., 70., -227.,
          -1537., -1408., -626., -399., 2032., 999., 907., 37., 1081.,
          1442., -1987., -2312., 730., -248., -39., -1104., -375., 122.,
          2576., 1716., 625., -234., -1130., 437., -792., -499., 141.,
          -375., 636., 1074., -273., 270., -620., 255., 2902., -347.,
          -1701., -3022., 724., 677., -968., -708., 130., -488., -1368.,
          -416., 4801., 6385., 4325., 1773., 1979., 4066., 5266., 4830.,
          5409., 4203., 229., 163., 561., 2680., 4661., 4441., 5838.,
          2709., 1789., 4226., 4596., 2445., 3982., 4459., 5845., 4539.,
          531., 3372., 2833., 1310., 2776., 4840., 4759., 4836., 4427.,
          4258., 5008., 4072., 3699., 4234., 4462., 4345., 4336., 3573.,
          3847., 3089., 1230., 3584., 6053., 5158., 2722., 2179., 2220.,
          2111., 3803., 4206., 4064., 5139., 7126., 3898., 1354., 2322.,
          5560., 6762. ]
      - [ -616., -663., -2721., -1041., -733., 2., -183., -669., 108.,
          -652., 2892., 2539., 2183., 1296., 2648., 291., -473., 1297.,
          -2086., -3527., -2918., 1638., -2744., 483., 217., -976.,
          1721., 2720., 1368., 123., 1947., 719., 92., -775., -696.,
          2223., 2188., 923., -1537., 1112., 1881., -540., 1286., 431.,
          1177., -3843., -1680., -78., 1152., 1592., -945., -1395.,
          -363., -1136., 364., 1078., 87., 272., 198., -696., -1442.,
          -189., -688., 15., 5584., 5573., 4619., 6043., 5607., 6590.,
          6621., 6119., 6516., 5914., 3292., 1745., 3489., 5006., 4326.,
          5609., 6203., 3571., 1136., 2047., 1442., 3128., 3926., 4589.,
          5885., 4738., 1129., 3878., 3116., 2539., 3113., 2543., 5472.,
          5389., 4454., 4469., 3592., 4245., 3807., 4792., 3927., 5304.,
          6058., 2663., 1995., 3175., 2508., 3522., 4308., 5808., 6033.,
          3311., 2007., 5808., 6676., 5482., 2767., 3336., 4580., 6710.,
          5878., 6673., 6698., 2741. ]
      - [ 747., 486., 4234., 3280., 3520., -1271., -204., -1524., 989.,
          1551., 383., 357., -267., 2139., -443., -213., 3356., 278.,
          -2538., -2748., 56., -71., 240., 591., -655., -146., 857.,
          4102., -110., -1655., 117., 640., -1122., 520., -258., -1838.,
          2176., 1196., -557., -883., 1145., 72., 509., 989., 462.,
          -445., 189., 490., -2180., -2309., -2855., -69., 1213., 418.,
          -357., -1525., 404., 2088., -80., -2752., -389., -526., -488.,
          274., 6135., 5448., 3298., 2318., 3776., 5433., 5164., 5296.,
          5071., 2947., 369., 237., 473., 3387., 5987., 4287., 2968.,
          2036., 1264., 3434., 4724., 5547., 5614., 4737., 2199., 330.,
          1429., 2522., 2224., 1793., 4771., 4908., 2932., 944., 2452.,
          3626., 3214., 3978., 5923., 5599., 591., 154., 537., 2327.,
          2048., 2335., 5201., 5472., 3202., 3091., 3337., 1869., 1339.,
          2126., 5581., 5609., 3778., 5578., 6880., 4602., 1227., 2410.,
          5624., 5806. ]
      - [ 259., 808., 3014., 218., 1432., 336., -305., -422., -819.,
          920., 358., 229., -1053., 1425., -996., 86., 130., -354.,
          -3774., -1286., -43., -866., -2053., 144., 542., -47., 2060.,
          3184., 2393., -419., -105., 31., 101., -1235., -1954., -2280.,
          -864., -267., 124., 723., -194., -378., 224., 1173., 185.,
          1039., 713., 343., 72., 76., -1180., -987., -576., 494., -243.,
          -340., 144., -1768., -613., -701., -437., -286., 135., -653.,
          5869., 5642., 1932., 740., 1216., 3466., 3341., 3804., 6043.,
          2824., 194., 281., 709., 1667., 4452., 6366., 5488., 2356.,
          2600., 4158., 5645., 2770., 3721., 6618., 5150., 3027., 3604.,
          4372., 3213., 2469., 3211., 6355., 6147., 2937., 2380., 3810.,
          6056., 5395., 4662., 5041., 5494., 5022., 4192., 3659., 3243.,
          3759., 3959., 5151., 4828., 5192., 4508., 3457., 3296., 2908.,
          3291., 5042., 5148., 6066., 4953., 1741., 1157., 1228., 3565.,
          6501. ]
      - [ -2465., -1630., 825., -70., 1067., 1080., -1586., -1581.,
          2477., 842., 517., 233., 569., 395., -1541., -290., -329.,
          -1888., -3386., -1445., -1652., 882., -1068., -1228., -822.,
          166., -579., 2080., 3686., 189., 1383., 674., -1761., -435.,
          -1184., -1214., -3555., -1516., -785., 410., -99., -351.,
          2422., 1915., 938., 1012., 193., 105., -181., 36., -1668.,
          -1165., 992., 481., 1012., 1293., 627., -310., 2700., 49.,
          1471., -299., -2067., -2322., 5727., 1404., 1295., 1224.,
          3023., 3318., 3408., 4487., 4033., 618., 327., 371., 789.,
          4161., 6445., 6408., 2531., 970., 1912., 4097., 3592., 4538.,
          5802., 6114., 3000., 2474., 4177., 3164., 2534., 1669., 5739.,
          6074., 2133., 1019., 2220., 2768., 3285., 4112., 4619., 5796.,
          4721., 4007., 4142., 2137., 2184., 2652., 4793., 5299., 4617.,
          5552., 3434., 1491., 2052., 2665., 2814., 5111., 4001., 5536.,
          3910., 2293., 1351., 1859., 3973., 5532. ]
      - [ -281., 1386., 451., 2959., 1204., 574., -480., 394., -1930.,
          408., 677., 309., 884., 1824., 138., 342., 1356., 1260., -4.,
          -721., -4287., 120., 352., 232., 1550., -1038., -232., -839.,
          692., 987., 2191., 208., -803., 912., 384., 235., -3458.,
          -2783., 1310., 874., -1622., -1705., -76., -257., 3150., 2390.,
          -63., 771., 111., 419., -1153., -122., 279., -329., -534., 99.,
          -740., -797., -78., 423., 1436., -91., -257., -3288., 5195.,
          4974., 4247., 4571., 6118., 6202., 6264., 5368., 5156., 3480.,
          969., 615., 1082., 5480., 6700., 6476., 5286., 2952., 190.,
          797., 2341., 4472., 5890., 5966., 4686., 2792., 2384., 5125.,
          5054., 3829., 5041., 6026., 5125., 2728., 202., 2099., 4742.,
          3573., 4126., 3770., 4724., 4795., 3786., 5445., 4384., 4890.,
          1277., 2733., 4995., 4203., 4855., 3132., 3955., 3315., 464.,
          599., 6328., 6193., 5024., 2915., 2264., 2201., 5939., 5992. ]
      - [ -134., 1668., 4125., 2832., 3788., 4907., 1714., 769., 1493.,
          1488., 214., 173., 206., 235., 728., 668., 656., -556., -147.,
          -575., -672., -237., -390., -35., -481., 198., 1839., 1804.,
          880., 1669., 1511., -157., 327., -498., -1125., -1441., -859.,
          -1465., -1082., -1170., -792., -525., 114., 450., 1303., 904.,
          380., -698., 3951., 2582., 73., -554., 469., 15., -640., 1061.,
          -36., 477., -132., 307., 421., 48., 142., 713., 8262., 7534.,
          4455., 3402., 3928., 5247., 7190., 7613., 6229., 2964., 1566.,
          1235., 1140., 1239., 1880., 4602., 5938., 3006., 3587., 2719.,
          2446., 2589., 2956., 5307., 4517., 2762., 2543., 2150., 2412.,
          2071., 2117., 5169., 4357., 3726., 2497., 2005., 3417., 2917.,
          2684., 4222., 3870., 4189., 3582., 3216., 2483., 2742., 3210.,
          4482., 4325., 3916., 2575., 2186., 2055., 2039., 3170., 5861.,
          2650., 2811., 2666., 1987., 1571., 2114., 2146., 3189. ]
      - [ -42., 1900., 3788., 3455., 3803., 4805., 1232., 1060., 1749.,
          810., 155., 90., 128., 231., 990., 345., 585., -496., -86.,
          -533., -331., -199., -780., 349., -186., 1653., 1805., 1148.,
          1281., 1631., 900., -450., 219., -1701., -1695., -1393.,
          -1040., -1434., -966., -1425., -472., 1062., 550., 1302., 968.,
          651., 444., -482., 4180., 664., -383., 761., 85., -623., -205.,
          136., 384., 300., -91., 420., 278., 43., 379., 652., 8276.,
          6808., 3898., 3437., 3839., 5159., 7198., 8116., 6081., 2466.,
          1263., 1152., 1142., 1347., 1994., 4165., 5307., 3524., 3382.,
          2523., 2441., 2629., 2366., 3553., 5562., 3189., 2209., 2392.,
          2313., 1897., 2696., 3972., 5981., 3639., 2275., 3459., 2996.,
          1988., 3122., 3869., 3722., 3012., 2480., 2404., 2250., 2427.,
          3438., 4524., 4148., 3746., 2531., 2129., 1975., 2155., 4615.,
          6360., 2826., 2874., 2449., 1774., 1866., 2481., 2313., 3376. ]
      - [ -106., 1721., 3782., 3441., 4068., 4864., 2102., 1077., 1090.,
          906., -385., -289., -165., -210., 412., 492., 349., -129.,
          -79., -569., -537., -439., -295., -45., 558., 854., 781., 331.,
